{"learner":{"attributes":{"best_iteration":"625","best_score":"0.0","scikit_learn":"{\"_estimator_type\": \"classifier\"}"},"feature_names":["cap-diameter","stem-height","stem-width","cap-shape_cat","cap-surface_cat","cap-color_cat","does-bruise-or-bleed_cat","gill-attachment_cat","gill-spacing_cat","gill-color_cat","stem-root_cat","stem-surface_cat","stem-color_cat","veil-type_cat","veil-color_cat","has-ring_cat","ring-type_cat","spore-print-color_cat","habitat_cat","season_cat"],"feature_types":[],"gradient_booster":{"model":{"gbtree_model_param":{"num_parallel_tree":"1","num_trees":"800"},"iteration_indptr":[0,1,2,3,4,5,6,7,8,9,10,11,12,13,14,15,16,17,18,19,20,21,22,23,24,25,26,27,28,29,30,31,32,33,34,35,36,37,38,39,40,41,42,43,44,45,46,47,48,49,50,51,52,53,54,55,56,57,58,59,60,61,62,63,64,65,66,67,68,69,70,71,72,73,74,75,76,77,78,79,80,81,82,83,84,85,86,87,88,89,90,91,92,93,94,95,96,97,98,99,100,101,102,103,104,105,106,107,108,109,110,111,112,113,114,115,116,117,118,119,120,121,122,123,124,125,126,127,128,129,130,131,132,133,134,135,136,137,138,139,140,141,142,143,144,145,146,147,148,149,150,151,152,153,154,155,156,157,158,159,160,161,162,163,164,165,166,167,168,169,170,171,172,173,174,175,176,177,178,179,180,181,182,183,184,185,186,187,188,189,190,191,192,193,194,195,196,197,198,199,200,201,202,203,204,205,206,207,208,209,210,211,212,213,214,215,216,217,218,219,220,221,222,223,224,225,226,227,228,229,230,231,232,233,234,235,236,237,238,239,240,241,242,243,244,245,246,247,248,249,250,251,252,253,254,255,256,257,258,259,260,261,262,263,264,265,266,267,268,269,270,271,272,273,274,275,276,277,278,279,280,281,282,283,284,285,286,287,288,289,290,291,292,293,294,295,296,297,298,299,300,301,302,303,304,305,306,307,308,309,310,311,312,313,314,315,316,317,318,319,320,321,322,323,324,325,326,327,328,329,330,331,332,333,334,335,336,337,338,339,340,341,342,343,344,345,346,347,348,349,350,351,352,353,354,355,356,357,358,359,360,361,362,363,364,365,366,367,368,369,370,371,372,373,374,375,376,377,378,379,380,381,382,383,384,385,386,387,388,389,390,391,392,393,394,395,396,397,398,399,400,401,402,403,404,405,406,407,408,409,410,411,412,413,414,415,416,417,418,419,420,421,422,423,424,425,426,427,428,429,430,431,432,433,434,435,436,437,438,439,440,441,442,443,444,445,446,447,448,449,450,451,452,453,454,455,456,457,458,459,460,461,462,463,464,465,466,467,468,469,470,471,472,473,474,475,476,477,478,479,480,481,482,483,484,485,486,487,488,489,490,491,492,493,494,495,496,497,498,499,500,501,502,503,504,505,506,507,508,509,510,511,512,513,514,515,516,517,518,519,520,521,522,523,524,525,526,527,528,529,530,531,532,533,534,535,536,537,538,539,540,541,542,543,544,545,546,547,548,549,550,551,552,553,554,555,556,557,558,559,560,561,562,563,564,565,566,567,568,569,570,571,572,573,574,575,576,577,578,579,580,581,582,583,584,585,586,587,588,589,590,591,592,593,594,595,596,597,598,599,600,601,602,603,604,605,606,607,608,609,610,611,612,613,614,615,616,617,618,619,620,621,622,623,624,625,626,627,628,629,630,631,632,633,634,635,636,637,638,639,640,641,642,643,644,645,646,647,648,649,650,651,652,653,654,655,656,657,658,659,660,661,662,663,664,665,666,667,668,669,670,671,672,673,674,675,676,677,678,679,680,681,682,683,684,685,686,687,688,689,690,691,692,693,694,695,696,697,698,699,700,701,702,703,704,705,706,707,708,709,710,711,712,713,714,715,716,717,718,719,720,721,722,723,724,725,726,727,728,729,730,731,732,733,734,735,736,737,738,739,740,741,742,743,744,745,746,747,748,749,750,751,752,753,754,755,756,757,758,759,760,761,762,763,764,765,766,767,768,769,770,771,772,773,774,775,776,777,778,779,780,781,782,783,784,785,786,787,788,789,790,791,792,793,794,795,796,797,798,799,800],"tree_info":[0,0,0,0,0,0,0,0,0,0,0,0,0,0,0,0,0,0,0,0,0,0,0,0,0,0,0,0,0,0,0,0,0,0,0,0,0,0,0,0,0,0,0,0,0,0,0,0,0,0,0,0,0,0,0,0,0,0,0,0,0,0,0,0,0,0,0,0,0,0,0,0,0,0,0,0,0,0,0,0,0,0,0,0,0,0,0,0,0,0,0,0,0,0,0,0,0,0,0,0,0,0,0,0,0,0,0,0,0,0,0,0,0,0,0,0,0,0,0,0,0,0,0,0,0,0,0,0,0,0,0,0,0,0,0,0,0,0,0,0,0,0,0,0,0,0,0,0,0,0,0,0,0,0,0,0,0,0,0,0,0,0,0,0,0,0,0,0,0,0,0,0,0,0,0,0,0,0,0,0,0,0,0,0,0,0,0,0,0,0,0,0,0,0,0,0,0,0,0,0,0,0,0,0,0,0,0,0,0,0,0,0,0,0,0,0,0,0,0,0,0,0,0,0,0,0,0,0,0,0,0,0,0,0,0,0,0,0,0,0,0,0,0,0,0,0,0,0,0,0,0,0,0,0,0,0,0,0,0,0,0,0,0,0,0,0,0,0,0,0,0,0,0,0,0,0,0,0,0,0,0,0,0,0,0,0,0,0,0,0,0,0,0,0,0,0,0,0,0,0,0,0,0,0,0,0,0,0,0,0,0,0,0,0,0,0,0,0,0,0,0,0,0,0,0,0,0,0,0,0,0,0,0,0,0,0,0,0,0,0,0,0,0,0,0,0,0,0,0,0,0,0,0,0,0,0,0,0,0,0,0,0,0,0,0,0,0,0,0,0,0,0,0,0,0,0,0,0,0,0,0,0,0,0,0,0,0,0,0,0,0,0,0,0,0,0,0,0,0,0,0,0,0,0,0,0,0,0,0,0,0,0,0,0,0,0,0,0,0,0,0,0,0,0,0,0,0,0,0,0,0,0,0,0,0,0,0,0,0,0,0,0,0,0,0,0,0,0,0,0,0,0,0,0,0,0,0,0,0,0,0,0,0,0,0,0,0,0,0,0,0,0,0,0,0,0,0,0,0,0,0,0,0,0,0,0,0,0,0,0,0,0,0,0,0,0,0,0,0,0,0,0,0,0,0,0,0,0,0,0,0,0,0,0,0,0,0,0,0,0,0,0,0,0,0,0,0,0,0,0,0,0,0,0,0,0,0,0,0,0,0,0,0,0,0,0,0,0,0,0,0,0,0,0,0,0,0,0,0,0,0,0,0,0,0,0,0,0,0,0,0,0,0,0,0,0,0,0,0,0,0,0,0,0,0,0,0,0,0,0,0,0,0,0,0,0,0,0,0,0,0,0,0,0,0,0,0,0,0,0,0,0,0,0,0,0,0,0,0,0,0,0,0,0,0,0,0,0,0,0,0,0,0,0,0,0,0,0,0,0,0,0,0,0,0,0,0,0,0,0,0,0,0,0,0,0,0,0,0,0,0,0,0,0,0,0,0,0,0,0,0,0,0,0,0,0,0,0,0,0,0,0,0,0,0,0,0,0,0,0,0,0,0,0,0,0,0,0,0,0,0,0,0,0,0,0,0,0,0,0,0,0,0,0,0,0,0,0,0,0,0,0,0,0,0,0,0,0,0,0,0,0,0,0,0,0,0,0,0,0,0,0,0,0,0,0,0,0,0,0,0,0,0,0,0,0,0,0,0,0,0,0,0,0,0,0,0,0,0,0,0,0,0,0,0,0,0,0,0,0,0,0,0,0,0,0,0,0,0,0,0,0,0,0,0,0,0,0,0,0],"trees":[{"base_weights":[8.383427E-4,5.384286E-1,-4.180883E-1,1.3521459E0,3.5739785E-1,8.99878E-2,-4.9364245E-1,1.6191607E0,-2.1581893E-1,2.5897163E-1,9.004914E-2,-3.524889E-1,-1.8166236E0,1.7807854E0,4.9231637E-1,-1.1074753E-1,8.928794E-2,6.417346E-1,-1.6309205E-1,-4.5350173E-1,9.003917E-2,-2.252053E-1,-2.209917E0,8.986202E-2,1.2251993E0,-1.0939764E-1,8.928794E-2,-2.0376932E-2,1.1897609E0,-6.864075E-1,7.834404E-1,-5.90087E-1,7.9273313E-1,1.6369568E0,-1.0990931E-1,5.3935703E-2,-2.2193556E0,-8.542609E-2,8.2909904E-2,-1.07691206E-1,1.5906379E-2,7.7240095E-2,9.407963E-3,2.1668227E-2,-5.337698E-2,5.434057E-2,-4.448905E-2,-3.6376815E-2,1.9541806E-2,7.471731E-2,-1.02210954E-1,8.916243E-2,-8.376898E-2,-6.4444475E-2,-1.11436225E-1],"categories":[],"categories_nodes":[],"categories_segments":[],"categories_sizes":[],"default_left":[0,0,0,0,0,0,0,0,0,0,0,0,0,0,0,0,0,0,0,0,0,0,0,0,0,0,0,0,0,0,0,0,0,0,0,0,0,0,0,0,0,0,0,0,0,0,0,0,0,0,0,0,0,0,0],"id":0,"left_children":[1,3,5,7,9,-1,11,13,15,17,-1,19,21,23,25,-1,-1,27,29,31,-1,33,35,-1,37,-1,-1,39,41,43,45,47,49,51,-1,-1,53,-1,-1,-1,-1,-1,-1,-1,-1,-1,-1,-1,-1,-1,-1,-1,-1,-1,-1],"loss_changes":[3.3911042E3,9.7097266E2,1.4189664E3,5.0266602E2,7.6622424E2,0E0,1.5278025E3,1.8586157E2,7.0607886E2,8.1636755E2,0E0,1.6097007E3,4.9322485E2,5.9921875E0,4.5458115E2,0E0,0E0,9.6155615E2,1.1912119E3,1.2032645E3,0E0,5.8199316E2,2.2023926E1,0E0,3.9576267E1,0E0,0E0,8.680456E2,5.153008E2,6.6132574E2,4.3562665E2,8.5897974E2,1.3931414E3,4.2509903E1,0E0,0E0,2.6271973E0,0E0,0E0,0E0,0E0,0E0,0E0,0E0,0E0,0E0,0E0,0E0,0E0,0E0,0E0,0E0,0E0,0E0,0E0],"parents":[2147483647,0,0,1,1,2,2,3,3,4,4,6,6,7,7,8,8,9,9,11,11,12,12,13,13,14,14,17,17,18,18,19,19,21,21,22,22,24,24,27,27,28,28,29,29,30,30,31,31,32,32,33,33,36,36],"right_children":[2,4,6,8,10,-1,12,14,16,18,-1,20,22,24,26,-1,-1,28,30,32,-1,34,36,-1,38,-1,-1,40,42,44,46,48,50,52,-1,-1,54,-1,-1,-1,-1,-1,-1,-1,-1,-1,-1,-1,-1,-1,-1,-1,-1,-1,-1],"split_conditions":[-3.5876212E-1,-2.7679473E-2,-2.0351992E0,1.4452108E0,1.2929804E0,8.99878E-2,1.8743125E0,-6.968527E-1,-4.3749866E-1,7.9691845E-1,9.004914E-2,2.8679152E0,-4.3749866E-1,-3.866776E-1,-8.466559E-1,-1.1074753E-1,8.928794E-2,-6.7600644E-1,1.1087422E0,1.2257711E0,9.003917E-2,4.8509458E-1,-1.4220867E0,8.986202E-2,-2.2200944E0,-1.0939764E-1,8.928794E-2,-1.0522511E0,-5.721161E-1,-9.5491576E-1,7.899731E-1,1.4746865E0,1.0150781E0,-3.452299E-1,-1.0990931E-1,5.3935703E-2,-3.2586172E-1,-8.542609E-2,8.2909904E-2,-1.07691206E-1,1.5906379E-2,7.7240095E-2,9.407963E-3,2.1668227E-2,-5.337698E-2,5.434057E-2,-4.448905E-2,-3.6376815E-2,1.9541806E-2,7.471731E-2,-1.02210954E-1,8.916243E-2,-8.376898E-2,-6.4444475E-2,-1.11436225E-1],"split_indices":[2,11,11,4,17,0,18,11,7,12,0,16,7,2,7,0,0,4,12,10,0,12,3,0,10,0,0,9,2,3,7,2,2,8,0,0,2,0,0,0,0,0,0,0,0,0,0,0,0,0,0,0,0,0,0],"split_type":[0,0,0,0,0,0,0,0,0,0,0,0,0,0,0,0,0,0,0,0,0,0,0,0,0,0,0,0,0,0,0,0,0,0,0,0,0,0,0,0,0,0,0,0,0,0,0,0,0,0,0,0,0,0,0],"sum_hessian":[1.5055463E4,6.593731E3,8.461732E3,1.1987927E3,5.394938E3,2.7801315E2,8.1837188E3,1.0243241E3,1.744687E2,5.0516846E3,3.4325357E2,7.3958916E3,7.878275E2,8.953259E2,1.2899811E2,8.723435E1,8.723435E1,2.6489094E3,2.4027751E3,7.065241E3,3.3065033E2,1.5642874E2,6.313988E2,8.6740106E2,2.7924877E1,4.1763756E1,8.723435E1,1.2000283E3,1.448881E3,1.547483E3,8.5529205E2,6.3678604E3,6.9738055E2,8.0562035E1,7.58667E1,1.4827368E0,6.29916E2,3.2125964E0,2.471228E1,1.635953E2,1.0364331E3,1.0693004E3,3.7958063E2,3.9292526E2,1.1545577E3,7.2431696E2,1.3097508E2,5.5854697E3,7.823908E2,5.59486E2,1.3789453E2,7.7596565E1,2.9654737E0,7.660807E0,6.2225525E2],"tree_param":{"num_deleted":"0","num_feature":"20","num_nodes":"55","size_leaf_vector":"1"}},{"base_weights":[9.925388E-4,5.1375353E-1,-3.9644465E-1,1.297097E0,3.4063163E-1,8.652749E-2,-4.6793E-1,1.5552888E0,-2.04902E-1,2.4668704E-1,8.6584896E-2,-3.3427975E-1,-1.7138388E0,1.7119368E0,4.7033393E-1,-1.04330055E-1,8.5872345E-2,6.124117E-1,-1.5477395E-1,-4.2987671E-1,8.657557E-2,-2.1437305E-1,-2.080698E0,8.639633E-2,1.1738437E0,-1.0314238E-1,8.5872345E-2,-1.9358221E-2,1.1390604E0,-6.4995897E-1,7.480849E-1,-5.5891854E-1,7.5783354E-1,1.5723692E0,-1.03555754E-1,5.253355E-2,-2.0895958E0,-8.169574E-2,7.975282E-2,-1.9307023E-2,8.923367E-2,7.32484E-2,6.3336487E-3,-4.2659283E-2,6.713156E-2,5.1975098E-2,-4.209722E-2,-1.1968109E-2,-4.7580518E-2,7.236452E-2,-9.3820415E-2,8.575485E-2,-8.018827E-2,-6.126554E-2,-1.0491196E-1],"categories":[],"categories_nodes":[],"categories_segments":[],"categories_sizes":[],"default_left":[0,0,0,0,0,0,0,0,0,0,0,0,0,0,0,0,0,0,0,0,0,0,0,0,0,0,0,0,0,0,0,0,0,0,0,0,0,0,0,0,0,0,0,0,0,0,0,0,0,0,0,0,0,0,0],"id":1,"left_children":[1,3,5,7,9,-1,11,13,15,17,-1,19,21,23,25,-1,-1,27,29,31,-1,33,35,-1,37,-1,-1,39,41,43,45,47,49,51,-1,-1,53,-1,-1,-1,-1,-1,-1,-1,-1,-1,-1,-1,-1,-1,-1,-1,-1,-1,-1],"loss_changes":[3.0659065E3,8.9042334E2,1.2894681E3,4.612887E2,7.028396E2,0E0,1.3649409E3,1.7160254E2,6.3748395E2,7.4040967E2,0E0,1.4635593E3,4.3644507E2,5.595459E0,4.122276E2,0E0,0E0,8.779827E2,1.075476E3,1.085606E3,0E0,5.2487524E2,1.9970947E1,0E0,3.6534817E1,0E0,0E0,7.95125E2,4.7464075E2,6.301652E2,3.957147E2,8.012777E2,1.2637197E3,3.9331284E1,0E0,0E0,2.184082E0,0E0,0E0,0E0,0E0,0E0,0E0,0E0,0E0,0E0,0E0,0E0,0E0,0E0,0E0,0E0,0E0,0E0,0E0],"parents":[2147483647,0,0,1,1,2,2,3,3,4,4,6,6,7,7,8,8,9,9,11,11,12,12,13,13,14,14,17,17,18,18,19,19,21,21,22,22,24,24,27,27,28,28,29,29,30,30,31,31,32,32,33,33,36,36],"right_children":[2,4,6,8,10,-1,12,14,16,18,-1,20,22,24,26,-1,-1,28,30,32,-1,34,36,-1,38,-1,-1,40,42,44,46,48,50,52,-1,-1,54,-1,-1,-1,-1,-1,-1,-1,-1,-1,-1,-1,-1,-1,-1,-1,-1,-1,-1],"split_conditions":[-3.5876212E-1,-2.7679473E-2,-2.0351992E0,1.4452108E0,1.2929804E0,8.652749E-2,1.8743125E0,-6.968527E-1,-4.3749866E-1,7.9691845E-1,8.6584896E-2,2.8679152E0,-4.3749866E-1,-3.866776E-1,-8.466559E-1,-1.04330055E-1,8.5872345E-2,-6.7600644E-1,1.1087422E0,1.2257711E0,8.657557E-2,4.8509458E-1,-1.4220867E0,8.639633E-2,-2.2200944E0,-1.0314238E-1,8.5872345E-2,1.2145628E0,-5.611493E-1,1.2470723E0,7.899731E-1,3.8364592E-1,9.851687E-1,-3.452299E-1,-1.03555754E-1,5.253355E-2,-3.2586172E-1,-8.169574E-2,7.975282E-2,-1.9307023E-2,8.923367E-2,7.32484E-2,6.3336487E-3,-4.2659283E-2,6.713156E-2,5.1975098E-2,-4.209722E-2,-1.1968109E-2,-4.7580518E-2,7.236452E-2,-9.3820415E-2,8.575485E-2,-8.018827E-2,-6.126554E-2,-1.0491196E-1],"split_indices":[2,11,11,4,17,0,18,11,7,12,0,16,7,2,7,0,0,4,12,10,0,12,3,0,10,0,0,5,2,16,7,8,2,8,0,0,2,0,0,0,0,0,0,0,0,0,0,0,0,0,0,0,0,0,0],"split_type":[0,0,0,0,0,0,0,0,0,0,0,0,0,0,0,0,0,0,0,0,0,0,0,0,0,0,0,0,0,0,0,0,0,0,0,0,0,0,0,0,0,0,0,0,0,0,0,0,0,0,0,0,0,0,0],"sum_hessian":[1.5042419E4,6.568131E3,8.474289E3,1.187668E3,5.380463E3,2.747937E2,8.199495E3,1.0134258E3,1.7424216E2,5.041187E3,3.3927545E2,7.4062817E3,7.932132E2,8.85061E2,1.2836485E2,8.800887E1,8.6233284E1,2.6377307E3,2.4034565E3,7.079463E3,3.2681876E2,1.5623152E2,6.369816E2,8.573726E2,2.768833E1,4.213157E1,8.6233284E1,1.1996223E3,1.4381083E3,1.5523367E3,8.511198E2,6.3861523E3,6.933106E2,7.9694595E1,7.653693E1,1.4731251E0,6.3550854E2,3.2363155E0,2.4452015E1,9.975865E2,2.0203587E2,1.0875557E3,3.5055273E2,1.4091841E3,1.4315259E2,7.195826E2,1.3153725E2,3.5218364E3,2.864316E3,5.4984973E2,1.4346088E2,7.670755E1,2.9870448E0,7.706024E0,6.278025E2],"tree_param":{"num_deleted":"0","num_feature":"20","num_nodes":"55","size_leaf_vector":"1"}},{"base_weights":[1.1483777E-3,4.9101943E-1,-3.7646365E-1,1.2487751E0,3.2506737E-1,8.348016E-2,-4.4417217E-1,1.4990759E0,-1.955105E-1,2.3526634E-1,8.353459E-2,-3.1728277E-1,-1.6265142E0,1.6512573E0,4.5114735E-1,-9.889484E-2,8.285915E-2,5.85088E-1,-1.4699173E-1,-4.0779454E-1,8.352573E-2,-2.0505956E-1,-1.9713548E0,8.334337E-2,1.127828E0,-9.78271E-2,8.285915E-2,-1.8237555E-2,1.0924243E0,-6.1594015E-1,7.1510655E-1,-5.296931E-1,7.2645956E-1,1.515279E0,-9.8165676E-2,5.1209E-2,-1.9798206E0,-7.835054E-2,7.6926865E-2,-1.0038044E-1,1.5060658E-2,7.1738444E-2,9.402012E-3,2.1524167E-2,-4.8457246E-2,4.9767237E-2,-3.9879993E-2,-3.3009894E-2,2.0277863E-2,6.790389E-2,-9.608217E-2,8.274778E-2,-7.696634E-2,-5.835823E-2,-9.939692E-2],"categories":[],"categories_nodes":[],"categories_segments":[],"categories_sizes":[],"default_left":[0,0,0,0,0,0,0,0,0,0,0,0,0,0,0,0,0,0,0,0,0,0,0,0,0,0,0,0,0,0,0,0,0,0,0,0,0,0,0,0,0,0,0,0,0,0,0,0,0,0,0,0,0,0,0],"id":2,"left_children":[1,3,5,7,9,-1,11,13,15,17,-1,19,21,23,25,-1,-1,27,29,31,-1,33,35,-1,37,-1,-1,39,41,43,45,47,49,51,-1,-1,53,-1,-1,-1,-1,-1,-1,-1,-1,-1,-1,-1,-1,-1,-1,-1,-1,-1,-1],"loss_changes":[2.7765798E3,8.212296E2,1.1750078E3,4.2452234E2,6.4745996E2,0E0,1.2305311E3,1.5877588E2,5.7858514E2,6.72317E2,0E0,1.3341504E3,3.8929932E2,5.253662E0,3.7555807E2,0E0,0E0,8.0353546E2,9.719115E2,9.806102E2,0E0,4.7584866E2,1.8249756E1,0E0,3.3816998E1,0E0,0E0,7.632746E2,4.4123804E2,5.758511E2,3.5988037E2,7.816763E2,1.1540166E3,3.650203E1,0E0,0E0,1.8901367E0,0E0,0E0,0E0,0E0,0E0,0E0,0E0,0E0,0E0,0E0,0E0,0E0,0E0,0E0,0E0,0E0,0E0,0E0],"parents":[2147483647,0,0,1,1,2,2,3,3,4,4,6,6,7,7,8,8,9,9,11,11,12,12,13,13,14,14,17,17,18,18,19,19,21,21,22,22,24,24,27,27,28,28,29,29,30,30,31,31,32,32,33,33,36,36],"right_children":[2,4,6,8,10,-1,12,14,16,18,-1,20,22,24,26,-1,-1,28,30,32,-1,34,36,-1,38,-1,-1,40,42,44,46,48,50,52,-1,-1,54,-1,-1,-1,-1,-1,-1,-1,-1,-1,-1,-1,-1,-1,-1,-1,-1,-1,-1],"split_conditions":[-3.5876212E-1,-2.7679473E-2,-2.0351992E0,1.4452108E0,1.2929804E0,8.348016E-2,1.8743125E0,-6.968527E-1,-4.3749866E-1,7.9691845E-1,8.353459E-2,2.8679152E0,-4.3749866E-1,-3.866776E-1,-8.466559E-1,-9.889484E-2,8.285915E-2,-6.7600644E-1,1.1087422E0,1.2257711E0,8.352573E-2,4.8509458E-1,-1.4220867E0,8.334337E-2,-2.2200944E0,-9.78271E-2,8.285915E-2,-1.0522511E0,-5.77101E-1,-9.5491576E-1,7.899731E-1,1.4746865E0,1.070909E0,-3.452299E-1,-9.8165676E-2,5.1209E-2,-3.2586172E-1,-7.835054E-2,7.6926865E-2,-1.0038044E-1,1.5060658E-2,7.1738444E-2,9.402012E-3,2.1524167E-2,-4.8457246E-2,4.9767237E-2,-3.9879993E-2,-3.3009894E-2,2.0277863E-2,6.790389E-2,-9.608217E-2,8.274778E-2,-7.696634E-2,-5.835823E-2,-9.939692E-2],"split_indices":[2,11,11,4,17,0,18,11,7,12,0,16,7,2,7,0,0,4,12,10,0,12,3,0,10,0,0,9,2,3,7,2,2,8,0,0,2,0,0,0,0,0,0,0,0,0,0,0,0,0,0,0,0,0,0],"split_type":[0,0,0,0,0,0,0,0,0,0,0,0,0,0,0,0,0,0,0,0,0,0,0,0,0,0,0,0,0,0,0,0,0,0,0,0,0,0,0,0,0,0,0,0,0,0,0,0,0,0,0,0,0,0,0],"sum_hessian":[1.5008065E4,6.5328223E3,8.475243E3,1.1725056E3,5.3603164E3,2.7072144E2,8.204521E3,9.9928705E2,1.7321861E2,5.026073E3,3.3424307E2,7.410493E3,7.9402875E2,8.7206854E2,1.2721852E2,8.825E1,8.4968605E1,2.6241055E3,2.401968E3,7.0885215E3,3.2197183E2,1.5533263E2,6.386961E2,8.446929E2,2.7375704E1,4.2249916E1,8.4968605E1,1.1990985E3,1.425007E3,1.5559023E3,8.4606573E2,6.401124E3,6.873974E2,7.8582695E1,7.674993E1,1.4618142E0,6.372343E2,3.248108E0,2.4127596E1,1.6517719E2,1.0339213E3,1.0332826E3,3.9172433E2,3.9258633E2,1.163316E3,7.141138E2,1.3195198E2,5.6175464E3,7.8357764E2,5.554097E2,1.3198764E2,7.558468E1,2.998017E0,7.73444E0,6.294999E2],"tree_param":{"num_deleted":"0","num_feature":"20","num_nodes":"55","size_leaf_vector":"1"}},{"base_weights":[1.274188E-3,4.6998695E-1,-3.5796896E-1,9.997471E-1,2.4405152E-1,8.077862E-2,-4.2216936E-1,1.4127913E0,4.5872566E-1,1.18231714E-1,1.4419667E0,-3.0140802E-1,-1.5514451E0,3.850518E-1,1.5135058E0,6.581014E-1,-1.03268735E-1,8.37086E-2,3.4195956E-2,1.530848E0,-1.5545756E0,-3.871539E-1,8.082232E-2,-1.96976E-1,-1.8776771E0,1.1953508E0,-2.0842845E0,1.5368522E0,-9.1250524E-2,-1.4680493E0,8.6506736E-1,-2.913529E-1,5.22605E-1,-9.452484E-2,1.5802236E0,-8.717672E-2,6.8611554E-3,-5.0231934E-1,6.9794124E-1,1.4644734E0,-1.8707516E0,4.9955253E-2,-1.8857936E0,8.567054E-2,-9.699163E-2,-1.079885E-1,-1.7515346E-2,7.761922E-2,-4.1181214E-2,-1.06750265E-1,7.5453766E-2,6.510236E-2,-1.9841433E-2,1.603011E-2,-7.956615E-2,3.429974E-2,-1.1146142E-1,8.121967E-2,3.112391E-2,-9.895483E-3,-4.3783605E-2,6.709776E-2,-8.489605E-2,8.007666E-2,-7.405148E-2,-3.0701384E-2,-9.416204E-2,-5.5684652E-2,-9.467675E-2],"categories":[],"categories_nodes":[],"categories_segments":[],"categories_sizes":[],"default_left":[0,0,0,0,0,0,0,0,0,0,0,0,0,0,0,0,0,0,0,0,0,0,0,0,0,0,0,0,0,0,0,0,0,0,0,0,0,0,0,0,0,0,0,0,0,0,0,0,0,0,0,0,0,0,0,0,0,0,0,0,0,0,0,0,0,0,0,0,0],"id":3,"left_children":[1,3,5,7,9,-1,11,13,15,17,19,21,23,25,27,29,-1,-1,31,33,35,37,-1,39,41,43,45,47,-1,49,51,53,55,-1,57,-1,-1,59,61,63,65,-1,67,-1,-1,-1,-1,-1,-1,-1,-1,-1,-1,-1,-1,-1,-1,-1,-1,-1,-1,-1,-1,-1,-1,-1,-1,-1,-1],"loss_changes":[2.5181619E3,7.7642004E2,1.0733667E3,4.3280847E2,6.856388E2,0E0,1.1178235E3,1.13221436E2,4.2470667E2,5.384917E2,1.1754413E2,1.2190704E3,3.4957166E2,2.0151802E2,8.082446E1,3.4468274E2,0E0,0E0,6.2164624E2,7.401416E1,4.379841E0,8.867323E2,0E0,4.3333087E2,1.6783691E1,1.2599786E2,2.507843E0,3.7742676E1,0E0,1.4141931E2,3.9302588E2,1.8668496E3,7.045977E2,0E0,1.6545166E1,0E0,0E0,7.2868054E2,1.0530338E3,3.396895E1,6.1187744E-2,0E0,1.6965332E0,0E0,0E0,0E0,0E0,0E0,0E0,0E0,0E0,0E0,0E0,0E0,0E0,0E0,0E0,0E0,0E0,0E0,0E0,0E0,0E0,0E0,0E0,0E0,0E0,0E0,0E0],"parents":[2147483647,0,0,1,1,2,2,3,3,4,4,6,6,7,7,8,8,9,9,10,10,11,11,12,12,13,13,14,14,15,15,18,18,19,19,20,20,21,21,23,23,24,24,25,25,26,26,27,27,29,29,30,30,31,31,32,32,34,34,37,37,38,38,39,39,40,40,42,42],"right_children":[2,4,6,8,10,-1,12,14,16,18,20,22,24,26,28,30,-1,-1,32,34,36,38,-1,40,42,44,46,48,-1,50,52,54,56,-1,58,-1,-1,60,62,64,66,-1,68,-1,-1,-1,-1,-1,-1,-1,-1,-1,-1,-1,-1,-1,-1,-1,-1,-1,-1,-1,-1,-1,-1,-1,-1,-1,-1],"split_conditions":[-3.5876212E-1,-7.167001E-1,-2.0351992E0,7.9691845E-1,4.1468012E-1,8.077862E-2,1.8743125E0,-1.5850996E0,1.7703159E0,-3.737705E-1,1.4452108E0,2.8679152E0,-4.3749866E-1,2.1801102E0,1.6082876E0,-1.4220867E0,-1.03268735E-1,8.37086E-2,1.1125218E0,-2.2200944E0,-5.48926E-1,1.2257711E0,8.082232E-2,4.8509458E-1,-1.4220867E0,9.1376805E-1,-5.671312E-1,-4.604542E-1,-9.1250524E-2,-9.790375E-1,-6.381373E-1,-3.452299E-1,2.1801102E0,-9.452484E-2,6.4149374E-1,-8.717672E-2,6.8611554E-3,3.8364592E-1,9.851687E-1,-3.452299E-1,-4.559185E-1,4.9955253E-2,-3.2586172E-1,8.567054E-2,-9.699163E-2,-1.079885E-1,-1.7515346E-2,7.761922E-2,-4.1181214E-2,-1.06750265E-1,7.5453766E-2,6.510236E-2,-1.9841433E-2,1.603011E-2,-7.956615E-2,3.429974E-2,-1.1146142E-1,8.121967E-2,3.112391E-2,-9.895483E-3,-4.3783605E-2,6.709776E-2,-8.489605E-2,8.007666E-2,-7.405148E-2,-3.0701384E-2,-9.416204E-2,-5.5684652E-2,-9.467675E-2],"split_indices":[2,1,11,12,1,0,18,4,19,16,4,16,7,6,7,3,0,0,8,10,0,10,0,12,3,3,2,2,0,4,0,8,6,0,11,0,0,8,2,8,0,0,2,0,0,0,0,0,0,0,0,0,0,0,0,0,0,0,0,0,0,0,0,0,0,0,0,0,0],"split_type":[0,0,0,0,0,0,0,0,0,0,0,0,0,0,0,0,0,0,0,0,0,0,0,0,0,0,0,0,0,0,0,0,0,0,0,0,0,0,0,0,0,0,0,0,0,0,0,0,0,0,0,0,0,0,0,0,0,0,0,0,0,0,0,0,0,0,0,0,0],"sum_hessian":[1.4953068E4,6.4878774E3,8.46519E3,1.9387006E3,4.549177E3,2.659401E2,8.19925E3,1.0984641E3,8.4023645E2,4.117776E3,4.3140088E2,7.4082964E3,7.9095386E2,9.846849E1,9.999956E2,7.7941095E2,6.0825478E1,2.1003374E2,3.9077424E3,4.194486E2,1.1952269E1,7.0920156E3,3.1628067E2,1.5383916E2,6.371147E2,7.452835E1,2.3940142E1,9.935871E2,6.4085426E0,6.859944E1,7.108115E2,2.3450522E3,1.5626902E3,5.43673E0,4.1401187E2,1.0723922E1,1.2283461E0,6.41202E3,6.799958E2,7.726661E1,7.657255E1,1.4489957E0,6.356657E2,6.434879E1,1.0179552E1,2.2706114E1,1.234028E0,9.874321E2,6.1549635E0,5.6275154E1,1.23242855E1,5.279551E2,1.8285643E2,1.5949772E3,7.50075E2,1.4758146E3,8.687557E1,3.9509464E2,1.8917255E1,3.5329734E3,2.8790464E3,5.3628174E2,1.4371404E2,7.42671E1,2.999511E0,1.2471099E0,7.532543E1,7.7481003E0,6.279176E2],"tree_param":{"num_deleted":"0","num_feature":"20","num_nodes":"69","size_leaf_vector":"1"}},{"base_weights":[1.3386712E-3,4.4952118E-1,-3.4074324E-1,1.1807741E0,2.9232973E-1,7.836955E-2,-4.0166536E-1,1.4196955E0,-1.8726861E-1,2.0829287E-1,7.90916E-2,-2.8650746E-1,-1.4862956E0,1.5669496E0,4.0977103E-1,-9.092756E-2,7.7898964E-2,5.384299E-1,-1.4987487E-1,-3.6776626E-1,7.841188E-2,-1.9010594E-1,-1.79657E0,7.9119936E-2,1.0530984E0,-9.090934E-2,7.796148E-2,-3.0738542E-2,1.0234402E0,-5.899141E-1,6.695605E-1,-4.7656116E-1,6.720079E-1,1.4189858E0,-1.79082E0,4.876622E-2,-1.8044026E0,-7.593604E-2,7.284013E-2,-1.8316513E-2,8.312466E-2,6.96118E-2,1.162412E-2,-3.8705792E-2,6.269541E-2,-7.409536E-4,6.2475402E-2,-3.0045105E-2,2.0831103E-2,6.635104E-2,-7.597498E-2,7.769006E-2,-7.140108E-2,-9.014442E-2,-2.9208759E-2,-5.3213693E-2,-9.059407E-2],"categories":[],"categories_nodes":[],"categories_segments":[],"categories_sizes":[],"default_left":[0,0,0,0,0,0,0,0,0,0,0,0,0,0,0,0,0,0,0,0,0,0,0,0,0,0,0,0,0,0,0,0,0,0,0,0,0,0,0,0,0,0,0,0,0,0,0,0,0,0,0,0,0,0,0,0,0],"id":4,"left_children":[1,3,5,7,9,-1,11,13,15,17,-1,19,21,23,25,-1,-1,27,29,31,-1,33,35,-1,37,-1,-1,39,41,43,45,47,49,51,53,-1,55,-1,-1,-1,-1,-1,-1,-1,-1,-1,-1,-1,-1,-1,-1,-1,-1,-1,-1,-1,-1],"loss_changes":[2.283724E3,7.408159E2,9.826601E2,3.7303882E2,5.7491736E2,0E0,1.02218335E3,1.4376611E2,4.8810135E2,5.8950006E2,0E0,1.1162543E3,3.15599E2,5.0583496E0,3.2275067E2,0E0,0E0,7.16138E2,8.6278815E2,8.026615E2,0E0,3.9622717E2,1.5518921E1,0E0,3.0987782E1,0E0,0E0,6.7934894E2,4.0824097E2,5.2964185E2,3.3185965E2,7.134116E2,9.670086E2,3.168924E1,6.903076E-2,0E0,1.5715332E0,0E0,0E0,0E0,0E0,0E0,0E0,0E0,0E0,0E0,0E0,0E0,0E0,0E0,0E0,0E0,0E0,0E0,0E0,0E0,0E0],"parents":[2147483647,0,0,1,1,2,2,3,3,4,4,6,6,7,7,8,8,9,9,11,11,12,12,13,13,14,14,17,17,18,18,19,19,21,21,22,22,24,24,27,27,28,28,29,29,30,30,31,31,32,32,33,33,34,34,36,36],"right_children":[2,4,6,8,10,-1,12,14,16,18,-1,20,22,24,26,-1,-1,28,30,32,-1,34,36,-1,38,-1,-1,40,42,44,46,48,50,52,54,-1,56,-1,-1,-1,-1,-1,-1,-1,-1,-1,-1,-1,-1,-1,-1,-1,-1,-1,-1,-1,-1],"split_conditions":[-3.5876212E-1,-2.7679473E-2,-2.0351992E0,1.4452108E0,1.2929804E0,7.836955E-2,1.8743125E0,-6.968527E-1,-4.3749866E-1,7.9691845E-1,7.90916E-2,2.8679152E0,-4.3749866E-1,-3.866776E-1,-8.466559E-1,-9.092756E-2,7.7898964E-2,-6.7600644E-1,1.1087422E0,1.2257711E0,7.841188E-2,4.8509458E-1,-1.4220867E0,7.9119936E-2,-2.2200944E0,-9.090934E-2,7.796148E-2,1.2145628E0,-6.0003155E-1,1.2470723E0,-8.7320447E-1,1.4746865E0,9.233558E-1,-3.452299E-1,2.6795027E-1,4.876622E-2,-3.2586172E-1,-7.593604E-2,7.284013E-2,-1.8316513E-2,8.312466E-2,6.96118E-2,1.162412E-2,-3.8705792E-2,6.269541E-2,-7.409536E-4,6.2475402E-2,-3.0045105E-2,2.0831103E-2,6.635104E-2,-7.597498E-2,7.769006E-2,-7.140108E-2,-9.014442E-2,-2.9208759E-2,-5.3213693E-2,-9.059407E-2],"split_indices":[2,11,11,4,17,0,18,11,7,12,0,16,7,2,7,0,0,4,12,10,0,12,3,0,10,0,0,5,2,16,2,2,2,8,5,0,2,0,0,0,0,0,0,0,0,0,0,0,0,0,0,0,0,0,0,0,0],"split_type":[0,0,0,0,0,0,0,0,0,0,0,0,0,0,0,0,0,0,0,0,0,0,0,0,0,0,0,0,0,0,0,0,0,0,0,0,0,0,0,0,0,0,0,0,0,0,0,0,0,0,0,0,0,0,0,0,0],"sum_hessian":[1.489362E4,6.446868E3,8.446752E3,1.1394851E3,5.3073833E3,2.6057526E2,8.186177E3,9.700357E2,1.6944939E2,4.9837534E3,3.2362973E2,7.401595E3,7.845816E2,8.4611475E2,1.2392095E2,8.756262E1,8.188676E1,2.5930947E3,2.390659E3,7.0917E3,3.09895E2,1.5184648E2,6.327351E2,8.1939966E2,2.6715082E1,4.197684E1,8.194411E1,1.1934712E3,1.3996235E3,1.5555852E3,8.350737E2,6.4204497E3,6.712504E2,7.578169E1,7.606478E1,1.434847E0,6.313003E2,3.2498393E0,2.3465242E1,9.9671075E2,1.9676042E2,9.540319E2,4.4559155E2,1.4148217E3,1.4076355E2,3.8349573E2,4.51578E2,5.6361616E3,7.8428845E2,5.1709265E2,1.5415775E2,7.2789116E1,2.9925737E0,7.48223E1,1.242482E0,7.7488503E0,6.2355145E2],"tree_param":{"num_deleted":"0","num_feature":"20","num_nodes":"57","size_leaf_vector":"1"}},{"base_weights":[1.477583E-3,4.4494262E-1,-3.1464648E-1,9.6796316E-1,2.1909556E-1,7.6319054E-2,-3.742881E-1,1.3369521E0,4.7731438E-1,-8.57345E-2,6.684964E-1,-4.3475193E-1,7.6751165E-2,3.6221933E-1,1.4347026E0,6.7783177E-1,-9.6123315E-2,5.110412E-1,-1.5050781E0,8.156199E-1,-1.0392407E-1,-3.2762504E-1,-1.4155993E0,1.1452758E0,-1.9480797E0,1.4578079E0,-8.593981E-2,-1.3877739E0,8.911744E-1,7.716419E-2,2.4314556E-1,-1.9152445E0,9.9621E-2,3.7777504E-1,1.4076053E0,-4.4848582E-1,7.4346215E-1,-3.096042E-1,-1.6958151E0,8.1842676E-2,-9.112244E-2,-1.009014E-1,-1.6489739E-2,3.0148664E-2,7.433321E-2,-9.950891E-2,7.126999E-2,6.142322E-2,-1.5183829E-2,2.5609566E-2,-3.6808576E-2,7.1086586E-2,-9.785858E-2,-9.945189E-2,8.865233E-2,4.0479723E-2,-5.6890745E-2,8.3182685E-2,-1.0133483E-1,-7.795085E-3,-4.0395293E-2,7.2089925E-2,-4.8442252E-2,6.060133E-2,-8.756851E-2,6.911049E-2,-8.6065896E-2],"categories":[],"categories_nodes":[],"categories_segments":[],"categories_sizes":[],"default_left":[0,0,0,0,0,0,0,0,0,0,0,0,0,0,0,0,0,0,0,0,0,0,0,0,0,0,0,0,0,0,0,0,0,0,0,0,0,0,0,0,0,0,0,0,0,0,0,0,0,0,0,0,0,0,0,0,0,0,0,0,0,0,0,0,0,0,0],"id":5,"left_children":[1,3,5,7,9,-1,11,13,15,17,19,21,-1,23,25,27,-1,29,31,33,-1,35,37,39,41,43,-1,45,47,-1,49,51,53,55,57,59,61,63,65,-1,-1,-1,-1,-1,-1,-1,-1,-1,-1,-1,-1,-1,-1,-1,-1,-1,-1,-1,-1,-1,-1,-1,-1,-1,-1,-1,-1],"loss_changes":[2.077007E3,7.2812585E2,9.50326E2,3.359701E2,5.901706E2,0E0,9.6798596E2,1.0053906E2,3.8607892E2,2.175582E3,7.0535535E2,8.53027E2,0E0,1.795387E2,7.271826E1,3.2676794E2,0E0,4.9968384E2,5.005901E2,4.280039E2,0E0,9.484662E2,2.4725195E2,1.1068925E2,2.1847916E0,2.2714233E1,0E0,1.2069075E2,2.70453E2,0E0,3.789717E2,8.750415E1,5.477914E2,6.2380786E2,6.211665E2,6.920565E2,8.898883E2,3.5936053E2,5.2434326E1,0E0,0E0,0E0,0E0,0E0,0E0,0E0,0E0,0E0,0E0,0E0,0E0,0E0,0E0,0E0,0E0,0E0,0E0,0E0,0E0,0E0,0E0,0E0,0E0,0E0,0E0,0E0,0E0],"parents":[2147483647,0,0,1,1,2,2,3,3,4,4,6,6,7,7,8,8,9,9,10,10,11,11,13,13,14,14,15,15,17,17,18,18,19,19,21,21,22,22,23,23,24,24,25,25,27,27,28,28,30,30,31,31,32,32,33,33,34,34,35,35,36,36,37,37,38,38],"right_children":[2,4,6,8,10,-1,12,14,16,18,20,22,-1,24,26,28,-1,30,32,34,-1,36,38,40,42,44,-1,46,48,-1,50,52,54,56,58,60,62,64,66,-1,-1,-1,-1,-1,-1,-1,-1,-1,-1,-1,-1,-1,-1,-1,-1,-1,-1,-1,-1,-1,-1,-1,-1,-1,-1,-1,-1],"split_conditions":[-3.9565042E-1,-7.167001E-1,-2.0351992E0,7.9691845E-1,1.1125218E0,7.6319054E-2,3.4081962E0,-1.5850996E0,1.7703159E0,-3.452299E-1,2.1801102E0,1.8743125E0,7.6751165E-2,2.1801102E0,1.6082876E0,-1.4220867E0,-9.6123315E-2,-2.7679473E-2,7.899731E-1,-4.3749866E-1,-1.0392407E-1,1.2257711E0,-4.3749866E-1,9.1376805E-1,-5.671312E-1,-1.6809599E0,-8.593981E-2,-9.790375E-1,-6.17258E-1,7.716419E-2,1.6082876E0,-1.5850996E0,-8.213614E-1,-8.466559E-1,1.4452108E0,3.8364592E-1,1.3302053E0,4.8509458E-1,-1.4220867E0,8.1842676E-2,-9.112244E-2,-1.009014E-1,-1.6489739E-2,3.0148664E-2,7.433321E-2,-9.950891E-2,7.126999E-2,6.142322E-2,-1.5183829E-2,2.5609566E-2,-3.6808576E-2,7.1086586E-2,-9.785858E-2,-9.945189E-2,8.865233E-2,4.0479723E-2,-5.6890745E-2,8.3182685E-2,-1.0133483E-1,-7.795085E-3,-4.0395293E-2,7.2089925E-2,-4.8442252E-2,6.060133E-2,-8.756851E-2,6.911049E-2,-8.6065896E-2],"split_indices":[2,1,11,12,8,0,16,4,19,8,6,18,0,6,7,3,0,11,7,7,0,10,7,3,2,9,0,4,0,0,7,4,2,7,4,8,0,12,3,0,0,0,0,0,0,0,0,0,0,0,0,0,0,0,0,0,0,0,0,0,0,0,0,0,0,0,0],"split_type":[0,0,0,0,0,0,0,0,0,0,0,0,0,0,0,0,0,0,0,0,0,0,0,0,0,0,0,0,0,0,0,0,0,0,0,0,0,0,0,0,0,0,0,0,0,0,0,0,0,0,0,0,0,0,0,0,0,0,0,0,0,0,0,0,0,0,0],"sum_hessian":[1.4813661E4,6.164946E3,8.648715E3,1.8582628E3,4.306683E3,2.7061877E2,8.378097E3,1.0596418E3,7.98621E2,2.5665757E3,1.7401077E3,8.1216724E3,2.5642374E2,9.7009026E1,9.626328E2,7.37699E2,6.0922028E1,1.8073141E3,7.592615E2,1.6523154E3,8.779218E1,7.3231787E3,7.9849396E2,7.282864E1,2.4180386E1,9.5616486E2,6.467974E0,6.854398E1,6.6915497E2,3.7141913E2,1.4358949E3,6.045444E2,1.5471709E2,9.507551E2,7.015603E2,6.5811475E3,7.420311E2,1.6183711E2,6.366568E2,6.286419E1,9.964455E0,2.2941742E1,1.2386433E0,3.1937891E1,9.242269E2,5.6695858E1,1.1848126E1,5.218233E2,1.473317E2,1.1268066E3,3.090883E2,7.093124E0,5.9745123E2,6.873634E1,8.598075E1,7.402968E2,2.1045831E2,6.533636E2,4.8196716E1,3.6286755E3,2.952472E3,5.2718524E2,2.1484584E2,7.881529E1,8.302183E1,4.794487E0,6.318623E2],"tree_param":{"num_deleted":"0","num_feature":"20","num_nodes":"67","size_leaf_vector":"1"}},{"base_weights":[1.5740305E-3,4.2696398E-1,-2.9988545E-1,9.3374777E-1,2.098344E-1,7.4365005E-2,-3.5653913E-1,1.2957222E0,4.5757487E-1,8.9413054E-2,1.2833318E0,-4.1390187E-1,7.475878E-2,3.472493E-1,1.3916804E0,6.501157E-1,-9.1821276E-2,-4.550349E-1,3.441071E-1,1.3763281E0,-7.636102E-2,-3.1145933E-1,-1.3641876E0,1.1060258E0,-1.8507622E0,1.4144078E0,-8.194921E-2,-1.3240613E0,8.5512644E-1,-1.749585E0,-1.6888887E-1,8.13685E-2,1.09749675E-1,-9.6116565E-2,1.4366692E0,-4.2582956E-1,7.164573E-1,-2.9877204E-1,-1.6336942E0,7.92765E-2,-8.715352E-2,-9.582568E-2,-1.6019857E-2,2.890025E-2,7.215165E-2,-9.465926E-2,6.9423355E-2,5.911907E-2,-1.4411709E-2,-1.0270312E-1,5.7774264E-2,6.9764134E-4,-1.021866E-1,-2.9911175E-3,8.0800034E-2,7.509328E-2,2.2229435E-2,-2.691969E-2,2.2230832E-2,6.991565E-2,-4.591923E-2,5.8659673E-2,-8.431501E-2,6.7090385E-2,-8.291787E-2],"categories":[],"categories_nodes":[],"categories_segments":[],"categories_sizes":[],"default_left":[0,0,0,0,0,0,0,0,0,0,0,0,0,0,0,0,0,0,0,0,0,0,0,0,0,0,0,0,0,0,0,0,0,0,0,0,0,0,0,0,0,0,0,0,0,0,0,0,0,0,0,0,0,0,0,0,0,0,0,0,0,0,0,0,0],"id":6,"left_children":[1,3,5,7,9,-1,11,13,15,17,19,21,-1,23,25,27,-1,29,31,33,-1,35,37,39,41,43,-1,45,47,49,51,-1,53,-1,55,57,59,61,63,-1,-1,-1,-1,-1,-1,-1,-1,-1,-1,-1,-1,-1,-1,-1,-1,-1,-1,-1,-1,-1,-1,-1,-1,-1,-1],"loss_changes":[1.88867E3,6.7195386E2,8.732617E2,3.1514783E2,5.5284796E2,0E0,8.881333E2,9.41864E1,3.5130804E2,5.3363165E2,1.14848206E2,7.8861365E2,0E0,1.6365536E2,6.735889E1,2.974054E2,0E0,4.54057E2,7.882457E2,8.5977356E1,0E0,8.606043E2,2.2590015E2,1.02026566E2,1.9257584E0,2.1618652E1,0E0,1.0954893E2,2.4870456E2,1.9867712E2,3.4475537E2,0E0,5.665705E2,0E0,2.59245E1,6.455149E2,8.1844147E2,3.295785E2,4.8387085E1,0E0,0E0,0E0,0E0,0E0,0E0,0E0,0E0,0E0,0E0,0E0,0E0,0E0,0E0,0E0,0E0,0E0,0E0,0E0,0E0,0E0,0E0,0E0,0E0,0E0,0E0],"parents":[2147483647,0,0,1,1,2,2,3,3,4,4,6,6,7,7,8,8,9,9,10,10,11,11,13,13,14,14,15,15,17,17,18,18,19,19,21,21,22,22,23,23,24,24,25,25,27,27,28,28,29,29,30,30,32,32,34,34,35,35,36,36,37,37,38,38],"right_children":[2,4,6,8,10,-1,12,14,16,18,20,22,-1,24,26,28,-1,30,32,34,-1,36,38,40,42,44,-1,46,48,50,52,-1,54,-1,56,58,60,62,64,-1,-1,-1,-1,-1,-1,-1,-1,-1,-1,-1,-1,-1,-1,-1,-1,-1,-1,-1,-1,-1,-1,-1,-1,-1,-1],"split_conditions":[-3.9565042E-1,-7.167001E-1,-2.0351992E0,7.9691845E-1,3.6704305E-1,7.4365005E-2,3.4081962E0,-1.5850996E0,1.7703159E0,-6.7600644E-1,1.4452108E0,1.8743125E0,7.475878E-2,2.1801102E0,1.6082876E0,-1.4220867E0,-9.1821276E-2,-1.3858485E0,2.3308665E-1,-2.2200944E0,-7.636102E-2,1.2257711E0,-4.3749866E-1,9.1376805E-1,-5.671312E-1,-1.6809599E0,-8.194921E-2,-9.790375E-1,-6.17258E-1,-4.9634552E-1,1.1948079E0,8.13685E-2,1.9798402E0,-9.6116565E-2,6.4149374E-1,1.3106669E0,1.3302053E0,4.8509458E-1,-1.4220867E0,7.92765E-2,-8.715352E-2,-9.582568E-2,-1.6019857E-2,2.890025E-2,7.215165E-2,-9.465926E-2,6.9423355E-2,5.911907E-2,-1.4411709E-2,-1.0270312E-1,5.7774264E-2,6.9764134E-4,-1.021866E-1,-2.9911175E-3,8.0800034E-2,7.509328E-2,2.2229435E-2,-2.691969E-2,2.2230832E-2,6.991565E-2,-4.591923E-2,5.8659673E-2,-8.431501E-2,6.7090385E-2,-8.291787E-2],"split_indices":[2,1,11,12,1,0,16,4,19,4,4,18,0,6,7,3,0,12,4,10,0,10,7,3,2,9,0,4,0,2,14,0,11,0,11,11,0,12,3,0,0,0,0,0,0,0,0,0,0,0,0,0,0,0,0,0,0,0,0,0,0,0,0,0,0],"split_type":[0,0,0,0,0,0,0,0,0,0,0,0,0,0,0,0,0,0,0,0,0,0,0,0,0,0,0,0,0,0,0,0,0,0,0,0,0,0,0,0,0,0,0,0,0,0,0,0,0,0,0,0,0,0,0,0,0,0,0,0,0,0,0,0,0],"sum_hessian":[1.4725871E4,6.1073555E3,8.618516E3,1.8308419E3,4.276513E3,2.64036E2,8.3544795E3,1.0391703E3,7.916717E2,3.8461487E3,4.3036475E2,8.1042026E3,2.5027696E2,9.5899155E1,9.432711E2,7.310311E2,6.0640553E1,1.2255529E3,2.6205957E3,4.1707477E2,1.3289987E1,7.3167695E3,7.874333E2,7.1658646E1,2.4240509E1,9.3677936E2,6.49176E0,6.825947E1,6.6277167E2,2.209303E2,1.00462256E3,4.0376572E2,2.21683E3,6.938004E0,4.1013675E2,6.584713E3,7.320564E2,1.5940012E2,6.2803314E2,6.1715412E1,9.943235E0,2.3E1,1.2405081E0,3.1700981E1,9.0507837E2,5.6671173E1,1.1588292E1,5.1525903E2,1.4751262E2,2.0023663E2,2.0693657E1,9.162582E2,8.836436E1,1.993378E3,2.2345195E2,3.843638E2,2.5772968E1,5.831037E3,7.536758E2,5.1669794E2,2.1535841E2,7.742157E1,8.1978546E1,4.723797E0,6.233093E2],"tree_param":{"num_deleted":"0","num_feature":"20","num_nodes":"65","size_leaf_vector":"1"}},{"base_weights":[1.6560628E-3,3.9656085E-1,-2.9524046E-1,1.0910306E0,2.529001E-1,7.2501495E-2,-3.474486E-1,1.3161637E0,-1.6986427E-1,1.74408E-1,7.486569E-2,-2.4689662E-1,-1.3312961E0,1.4593737E0,3.4119937E-1,-8.3537444E-2,7.3583774E-2,4.8148575E-1,-1.5449673E-1,-3.162316E-1,7.259737E-2,-1.6243671E-1,-1.6085976E0,7.374694E-2,9.4578475E-1,-8.450288E-2,7.214128E-2,-3.652118E-2,9.32811E-1,-5.575411E-1,6.0710746E-1,-4.081273E-1,6.0000926E-1,1.3103294E0,-1.6018099E0,4.4632096E-2,-1.6157149E0,-6.009176E-2,6.886647E-2,-8.974444E-2,1.2422898E-2,6.580948E-2,1.0637155E-2,-3.4929764E-2,8.925098E-2,-1.6006337E-3,5.7880234E-2,-2.6383782E-2,2.2490455E-2,5.813814E-2,-8.2209796E-2,7.255596E-2,-7.309728E-2,-8.0693565E-2,-2.4030473E-2,-4.400791E-2,-8.118092E-2],"categories":[],"categories_nodes":[],"categories_segments":[],"categories_sizes":[],"default_left":[0,0,0,0,0,0,0,0,0,0,0,0,0,0,0,0,0,0,0,0,0,0,0,0,0,0,0,0,0,0,0,0,0,0,0,0,0,0,0,0,0,0,0,0,0,0,0,0,0,0,0,0,0,0,0,0,0],"id":7,"left_children":[1,3,5,7,9,-1,11,13,15,17,-1,19,21,23,25,-1,-1,27,29,31,-1,33,35,-1,37,-1,-1,39,41,43,45,47,49,51,53,-1,55,-1,-1,-1,-1,-1,-1,-1,-1,-1,-1,-1,-1,-1,-1,-1,-1,-1,-1,-1,-1],"loss_changes":[1.7169581E3,6.2673816E2,7.621866E2,3.0593298E2,5.0851505E2,0E0,8.027052E2,1.27104614E2,4.0661826E2,4.9505792E2,0E0,8.680847E2,2.4363208E2,4.972534E0,2.6727377E2,0E0,0E0,5.926374E2,7.269404E2,5.961938E2,0E0,3.1032086E2,1.2267212E1,0E0,2.5953619E1,0E0,0E0,5.9232446E2,3.736715E2,5.128956E2,2.884161E2,6.600692E2,8.1724146E2,3.0385612E1,2.2483826E-1,0E0,2.0980225E0,0E0,0E0,0E0,0E0,0E0,0E0,0E0,0E0,0E0,0E0,0E0,0E0,0E0,0E0,0E0,0E0,0E0,0E0,0E0,0E0],"parents":[2147483647,0,0,1,1,2,2,3,3,4,4,6,6,7,7,8,8,9,9,11,11,12,12,13,13,14,14,17,17,18,18,19,19,21,21,22,22,24,24,27,27,28,28,29,29,30,30,31,31,32,32,33,33,34,34,36,36],"right_children":[2,4,6,8,10,-1,12,14,16,18,-1,20,22,24,26,-1,-1,28,30,32,-1,34,36,-1,38,-1,-1,40,42,44,46,48,50,52,54,-1,56,-1,-1,-1,-1,-1,-1,-1,-1,-1,-1,-1,-1,-1,-1,-1,-1,-1,-1,-1,-1],"split_conditions":[-3.5876212E-1,-2.7679473E-2,-2.0351992E0,1.4452108E0,1.2929804E0,7.2501495E-2,1.8743125E0,-6.968527E-1,-4.3749866E-1,7.9691845E-1,7.486569E-2,2.8679152E0,-4.3749866E-1,-3.866776E-1,-8.466559E-1,-8.3537444E-2,7.3583774E-2,-6.7600644E-1,1.1087422E0,1.2257711E0,7.259737E-2,4.8509458E-1,-1.4220867E0,7.374694E-2,-2.07579E-1,-8.450288E-2,7.214128E-2,-1.0522511E0,-6.109984E-1,1.2257711E0,-8.7320447E-1,1.4746865E0,1.070909E0,-3.452299E-1,2.6795027E-1,4.4632096E-2,-3.2586172E-1,-6.009176E-2,6.886647E-2,-8.974444E-2,1.2422898E-2,6.580948E-2,1.0637155E-2,-3.4929764E-2,8.925098E-2,-1.6006337E-3,5.7880234E-2,-2.6383782E-2,2.2490455E-2,5.813814E-2,-8.2209796E-2,7.255596E-2,-7.309728E-2,-8.0693565E-2,-2.4030473E-2,-4.400791E-2,-8.118092E-2],"split_indices":[2,11,11,4,17,0,18,11,7,12,0,16,7,2,7,0,0,4,12,10,0,12,3,0,1,0,0,9,2,10,2,2,2,8,5,0,2,0,0,0,0,0,0,0,0,0,0,0,0,0,0,0,0,0,0,0,0],"split_type":[0,0,0,0,0,0,0,0,0,0,0,0,0,0,0,0,0,0,0,0,0,0,0,0,0,0,0,0,0,0,0,0,0,0,0,0,0,0,0,0,0,0,0,0,0,0,0,0,0,0,0,0,0,0,0,0,0],"sum_hessian":[1.4642086E4,6.2837183E3,8.358367E3,1.0759379E3,5.207781E3,2.4199277E2,8.1163745E3,9.1289624E2,1.6304161E2,4.8998594E3,3.079212E2,7.3649106E3,7.514635E2,7.955439E2,1.1735233E2,8.5160385E1,7.788122E1,2.5337715E3,2.366088E3,7.076895E3,2.8801572E2,1.4439731E2,6.0706616E2,7.703263E2,2.5217587E1,4.107717E1,7.627517E1,1.180163E3,1.3536086E3,1.5474423E3,8.186455E2,6.4323115E3,6.4458356E2,7.141507E1,7.298223E1,1.3694952E0,6.056967E2,3.9207358E0,2.129685E1,1.6385466E2,1.0163083E3,8.827741E2,4.7083453E2,1.460219E3,8.722335E1,3.792653E2,4.3938022E2,5.645965E3,7.8634674E2,5.157394E2,1.2884416E2,6.8417076E1,2.997994E0,7.177073E1,1.2114999E0,7.6333957E0,5.980633E2],"tree_param":{"num_deleted":"0","num_feature":"20","num_nodes":"57","size_leaf_vector":"1"}},{"base_weights":[1.750485E-3,3.8089392E-1,-2.8185898E-1,1.0640597E0,2.4216947E-1,7.0905104E-2,-3.3151746E-1,1.2845117E0,-1.6482027E-1,1.6682488E-1,7.3061176E-2,-2.35117E-1,-1.2912489E0,1.424885E0,3.3201718E-1,-8.079349E-2,7.184279E-2,6.847858E-2,1.109806E0,-3.009059E-1,7.099598E-2,-1.5848528E-1,-1.5591336E0,7.201638E-2,9.1800815E-1,-8.159854E-2,7.052977E-2,4.0106604E-1,-2.9736653E-1,1.2784758E0,-3.939149E-1,-3.8776258E-1,5.8050287E-1,1.278216E0,-1.5530337E0,4.3692496E-2,-1.5661267E0,-6.860771E-2,6.5266445E-2,-6.0019214E-3,4.364141E-2,-2.7597046E-2,5.0177045E-2,5.782015E-3,8.099279E-2,7.1156405E-2,-9.340874E-2,-5.4526674E-3,-3.650814E-2,6.1434973E-2,-6.345571E-2,7.089884E-2,-7.053063E-2,-2.2903178E-2,-7.8251615E-2,-4.2286914E-2,-7.8699686E-2],"categories":[],"categories_nodes":[],"categories_segments":[],"categories_sizes":[],"default_left":[0,0,0,0,0,0,0,0,0,0,0,0,0,0,0,0,0,0,0,0,0,0,0,0,0,0,0,0,0,0,0,0,0,0,0,0,0,0,0,0,0,0,0,0,0,0,0,0,0,0,0,0,0,0,0,0,0],"id":8,"left_children":[1,3,5,7,9,-1,11,13,15,17,-1,19,21,23,25,-1,-1,27,29,31,-1,33,35,-1,37,-1,-1,39,41,43,45,47,49,51,53,-1,55,-1,-1,-1,-1,-1,-1,-1,-1,-1,-1,-1,-1,-1,-1,-1,-1,-1,-1,-1,-1],"loss_changes":[1.563393E3,5.893892E2,7.026176E2,2.8462744E2,4.7488232E2,0E0,7.474588E2,1.1856189E2,3.7551773E2,4.518324E2,0E0,8.002597E2,2.2354895E2,4.7487793E0,2.4729759E2,0E0,0E0,5.3716724E2,1.172121E2,5.4115466E2,0E0,2.8682297E2,1.1514648E1,0E0,2.4578043E1,0E0,0E0,5.6857874E2,6.968132E2,1.6414813E2,1.2902528E2,6.137798E2,7.619412E2,2.8521217E1,2.3683167E-1,0E0,2.0408936E0,0E0,0E0,0E0,0E0,0E0,0E0,0E0,0E0,0E0,0E0,0E0,0E0,0E0,0E0,0E0,0E0,0E0,0E0,0E0,0E0],"parents":[2147483647,0,0,1,1,2,2,3,3,4,4,6,6,7,7,8,8,9,9,11,11,12,12,13,13,14,14,17,17,18,18,19,19,21,21,22,22,24,24,27,27,28,28,29,29,30,30,31,31,32,32,33,33,34,34,36,36],"right_children":[2,4,6,8,10,-1,12,14,16,18,-1,20,22,24,26,-1,-1,28,30,32,-1,34,36,-1,38,-1,-1,40,42,44,46,48,50,52,54,-1,56,-1,-1,-1,-1,-1,-1,-1,-1,-1,-1,-1,-1,-1,-1,-1,-1,-1,-1,-1,-1],"split_conditions":[-3.5876212E-1,-2.7679473E-2,-2.0351992E0,1.4452108E0,1.2929804E0,7.0905104E-2,1.8743125E0,-6.968527E-1,-4.3749866E-1,1.1482297E0,7.3061176E-2,2.8679152E0,-4.3749866E-1,-3.866776E-1,-8.466559E-1,-8.079349E-2,7.184279E-2,7.9691845E-1,1.4452108E0,1.2257711E0,7.099598E-2,4.8509458E-1,-1.4220867E0,7.201638E-2,-2.2200944E0,-8.159854E-2,7.052977E-2,-6.7600644E-1,1.7368975E0,-8.466559E-1,-4.3749866E-1,3.8364592E-1,8.6453396E-1,-3.452299E-1,-4.559185E-1,4.3692496E-2,-3.2586172E-1,-6.860771E-2,6.5266445E-2,-6.0019214E-3,4.364141E-2,-2.7597046E-2,5.0177045E-2,5.782015E-3,8.099279E-2,7.1156405E-2,-9.340874E-2,-5.4526674E-3,-3.650814E-2,6.1434973E-2,-6.345571E-2,7.089884E-2,-7.053063E-2,-2.2903178E-2,-7.8251615E-2,-4.2286914E-2,-7.8699686E-2],"split_indices":[2,11,11,4,17,0,18,11,7,9,0,16,7,2,7,0,0,12,4,10,0,12,3,0,10,0,0,4,15,7,7,8,2,8,0,0,2,0,0,0,0,0,0,0,0,0,0,0,0,0,0,0,0,0,0,0,0],"split_type":[0,0,0,0,0,0,0,0,0,0,0,0,0,0,0,0,0,0,0,0,0,0,0,0,0,0,0,0,0,0,0,0,0,0,0,0,0,0,0,0,0,0,0,0,0,0,0,0,0,0,0,0,0,0,0,0,0],"sum_hessian":[1.4537314E4,6.2207544E3,8.316561E3,1.0488569E3,5.1718975E3,2.3526216E2,8.0812983E3,8.892812E2,1.5957578E2,4.8719214E3,2.9997607E2,7.3447935E3,7.365047E2,7.746253E2,1.1465589E2,8.37201E1,7.585567E1,4.4127725E3,4.591486E2,7.0647817E3,2.80012E2,1.4116663E2,5.953381E2,7.499362E2,2.4689098E1,4.0463196E1,7.4192696E1,2.3113987E3,2.101374E3,4.1297562E2,4.6172962E1,6.4315566E3,6.332248E2,6.9573524E1,7.1593094E1,1.3509725E0,5.9398706E2,3.2036674E0,2.148543E1,1.098619E3,1.2127797E3,1.757939E3,3.4343506E2,9.402819E1,3.1894742E2,2.0697601E1,2.5475359E1,3.5462634E3,2.8852932E3,4.6914804E2,1.6407678E2,6.658518E1,2.988344E0,1.2006404E0,7.0392456E1,7.588688E0,5.863984E2],"tree_param":{"num_deleted":"0","num_feature":"20","num_nodes":"57","size_leaf_vector":"1"}},{"base_weights":[1.8341345E-3,3.7787855E-1,-2.61009E-1,8.721938E-1,1.7571115E-1,6.954561E-2,-3.0976143E-1,1.2245817E0,4.245808E-1,-1.10963E-1,6.000686E-1,-2.1709652E-1,-1.2448701E0,3.184973E-1,1.3171788E0,6.0809916E-1,-8.571785E-2,4.445207E-1,-1.4247411E0,7.420258E-1,-9.889931E-2,-2.851963E-1,7.001498E-2,-1.3320558E0,7.063932E-2,1.0715907E0,-1.7660375E0,1.335903E0,-7.507131E-2,-1.2898163E0,8.0417067E-1,7.114421E-2,2.06711E-1,-1.7855618E0,-2.8671656E-4,3.3081535E-1,1.3112701E0,-3.918269E-1,4.12532E-1,-5.4839486E-1,-1.5033658E0,7.5400375E-2,-8.155111E-2,-9.159172E-2,-1.4815724E-2,2.2487734E-2,6.8300985E-2,-8.833124E-2,6.428984E-2,5.8704395E-2,-4.8361113E-3,2.3348968E-2,-3.660998E-2,6.5553E-2,-9.1197975E-2,-9.376649E-2,7.993055E-2,3.7481505E-2,-5.5283766E-2,7.80894E-2,-9.254149E-2,-1.3628082E-2,-9.9734455E-2,4.3806586E-2,-8.468561E-2,4.6987895E-2,-7.7649996E-2,5.9755653E-2,-7.6054245E-2],"categories":[],"categories_nodes":[],"categories_segments":[],"categories_sizes":[],"default_left":[0,0,0,0,0,0,0,0,0,0,0,0,0,0,0,0,0,0,0,0,0,0,0,0,0,0,0,0,0,0,0,0,0,0,0,0,0,0,0,0,0,0,0,0,0,0,0,0,0,0,0,0,0,0,0,0,0,0,0,0,0,0,0,0,0,0,0,0,0],"id":9,"left_children":[1,3,5,7,9,-1,11,13,15,17,19,21,23,25,27,29,-1,31,33,35,-1,37,-1,39,-1,41,43,45,-1,47,49,-1,51,53,55,57,59,61,63,65,67,-1,-1,-1,-1,-1,-1,-1,-1,-1,-1,-1,-1,-1,-1,-1,-1,-1,-1,-1,-1,-1,-1,-1,-1,-1,-1,-1,-1],"loss_changes":[1.4268286E3,5.9335016E2,6.847152E2,2.7135474E2,5.129885E2,0E0,7.149499E2,8.045007E1,2.9966888E2,1.8376487E3,6.236531E2,8.276918E2,1.7426746E2,1.442596E2,4.81416E1,2.6204285E2,0E0,4.115076E2,3.845896E2,3.769214E2,0E0,5.364569E2,0E0,9.594971E1,0E0,8.176982E1,1.8211899E0,2.2575806E1,0E0,8.339672E1,2.1217392E2,0E0,3.4857135E2,7.3381226E1,4.5939136E2,5.6473083E2,5.3822095E2,1.1948695E3,9.3504114E2,1.971361E2,3.0075073E1,0E0,0E0,0E0,0E0,0E0,0E0,0E0,0E0,0E0,0E0,0E0,0E0,0E0,0E0,0E0,0E0,0E0,0E0,0E0,0E0,0E0,0E0,0E0,0E0,0E0,0E0,0E0,0E0],"parents":[2147483647,0,0,1,1,2,2,3,3,4,4,6,6,7,7,8,8,9,9,10,10,11,11,12,12,13,13,14,14,15,15,17,17,18,18,19,19,21,21,23,23,25,25,26,26,27,27,29,29,30,30,32,32,33,33,34,34,35,35,36,36,37,37,38,38,39,39,40,40],"right_children":[2,4,6,8,10,-1,12,14,16,18,20,22,24,26,28,30,-1,32,34,36,-1,38,-1,40,-1,42,44,46,-1,48,50,-1,52,54,56,58,60,62,64,66,68,-1,-1,-1,-1,-1,-1,-1,-1,-1,-1,-1,-1,-1,-1,-1,-1,-1,-1,-1,-1,-1,-1,-1,-1,-1,-1,-1,-1],"split_conditions":[-3.9565042E-1,-7.256321E-1,-2.0351992E0,7.9691845E-1,1.1125218E0,6.954561E-2,1.8743125E0,-1.5850996E0,1.7703159E0,-3.452299E-1,2.1801102E0,2.8679152E0,1.1482297E0,2.1801102E0,1.6082876E0,-1.4220867E0,-8.571785E-2,-2.7679473E-2,7.899731E-1,-4.3749866E-1,-9.889931E-2,1.3106669E0,7.001498E-2,-4.3749866E-1,7.063932E-2,9.1376805E-1,-5.77101E-1,-1.6809599E0,-7.507131E-2,-9.790375E-1,-6.666089E-1,7.114421E-2,1.6082876E0,-1.5850996E0,-8.213614E-1,-8.466559E-1,1.4452108E0,6.4149374E-1,1.0150781E0,4.8509458E-1,-1.4220867E0,7.5400375E-2,-8.155111E-2,-9.159172E-2,-1.4815724E-2,2.2487734E-2,6.8300985E-2,-8.833124E-2,6.428984E-2,5.8704395E-2,-4.8361113E-3,2.3348968E-2,-3.660998E-2,6.5553E-2,-9.1197975E-2,-9.376649E-2,7.993055E-2,3.7481505E-2,-5.5283766E-2,7.80894E-2,-9.254149E-2,-1.3628082E-2,-9.9734455E-2,4.3806586E-2,-8.468561E-2,4.6987895E-2,-7.7649996E-2,5.9755653E-2,-7.6054245E-2],"split_indices":[2,1,11,12,8,0,18,4,19,8,6,16,9,6,7,3,0,11,7,7,0,11,0,7,0,3,2,9,0,4,0,0,7,4,2,7,4,11,2,12,3,0,0,0,0,0,0,0,0,0,0,0,0,0,0,0,0,0,0,0,0,0,0,0,0,0,0,0,0],"split_type":[0,0,0,0,0,0,0,0,0,0,0,0,0,0,0,0,0,0,0,0,0,0,0,0,0,0,0,0,0,0,0,0,0,0,0,0,0,0,0,0,0,0,0,0,0,0,0,0,0,0,0,0,0,0,0,0,0,0,0,0,0,0,0,0,0,0,0,0,0],"sum_hessian":[1.4433641E4,5.937928E3,8.495713E3,1.722635E3,4.2152935E3,2.4275352E2,8.252959E3,9.6287006E2,7.59765E2,2.5162095E3,1.6990836E3,7.509987E3,7.429725E2,8.96884E1,8.7318164E2,7.0038824E2,5.9376785E1,1.7689391E3,7.4727045E2,1.6110836E3,8.799999E1,7.207348E3,3.0263864E2,7.19856E2,2.3116446E1,6.6242485E1,2.3445919E1,8.679419E2,5.23976E0,6.5058876E1,6.3532935E2,3.449228E2,1.4240164E3,5.9603796E2,1.5123253E2,9.363005E2,6.747832E2,6.2522793E3,9.550686E2,1.2988689E2,5.899692E2,5.7413406E1,8.829076E0,2.220544E1,1.2404789E0,2.9051975E1,8.388899E2,5.5161278E1,9.897594E0,4.5017783E2,1.8515154E2,1.115343E3,3.0867325E2,6.8943324E0,5.891436E2,6.952592E1,8.170661E1,7.2531116E2,2.1098929E2,6.2571674E2,4.906643E1,5.820369E3,4.3191016E2,7.83253E2,1.7181567E2,5.2371662E1,7.751523E1,3.4152067E0,5.8655396E2],"tree_param":{"num_deleted":"0","num_feature":"20","num_nodes":"69","size_leaf_vector":"1"}},{"base_weights":[1.8691418E-3,3.6374336E-1,-2.490662E-1,8.4503204E-1,1.6874917E-1,6.821006E-2,-2.9539973E-1,1.1931895E0,4.083701E-1,5.9151936E-2,1.1936746E0,-2.0658445E-1,-1.2110302E0,3.072677E-1,1.2843816E0,5.848843E-1,-8.269993E-2,-4.2694438E-1,2.9199326E-1,1.2763056E0,-6.701067E-2,-2.7112237E-1,6.864893E-2,-1.2957712E0,6.9095165E-2,1.0415264E0,-1.691718E0,1.3029045E0,-7.2065E-2,-1.2421845E0,7.733376E-1,-1.6436422E0,-1.579605E-1,1.5120032E0,7.564986E-2,-9.1520585E-2,1.3375225E0,-4.4203576E-1,1.5702367E-1,-5.324346E-1,-1.4630709E0,7.348351E-2,-7.863643E-2,-8.7739475E-2,-1.4398098E-2,2.1543423E-2,6.6656776E-2,-8.491614E-2,6.296049E-2,5.594268E-2,-6.5960023E-3,-9.620621E-2,5.3601023E-2,3.1618213E-3,-7.717734E-2,7.076643E-2,8.04586E-2,-3.942796E-3,7.502647E-2,7.014428E-2,1.9903531E-2,-3.5639413E-2,2.3305504E-2,5.545823E-2,-2.3271035E-2,4.550039E-2,-7.5533554E-2,5.8290478E-2,-7.402302E-2],"categories":[],"categories_nodes":[],"categories_segments":[],"categories_sizes":[],"default_left":[0,0,0,0,0,0,0,0,0,0,0,0,0,0,0,0,0,0,0,0,0,0,0,0,0,0,0,0,0,0,0,0,0,0,0,0,0,0,0,0,0,0,0,0,0,0,0,0,0,0,0,0,0,0,0,0,0,0,0,0,0,0,0,0,0,0,0,0,0],"id":10,"left_children":[1,3,5,7,9,-1,11,13,15,17,19,21,23,25,27,29,-1,31,33,35,-1,37,-1,39,-1,41,43,45,-1,47,49,51,53,55,57,-1,59,61,63,65,67,-1,-1,-1,-1,-1,-1,-1,-1,-1,-1,-1,-1,-1,-1,-1,-1,-1,-1,-1,-1,-1,-1,-1,-1,-1,-1,-1,-1],"loss_changes":[1.3007793E3,5.50345E2,6.326955E2,2.56594E2,4.689795E2,0E0,6.6851E2,7.5574585E1,2.7460803E2,4.2720544E2,8.615814E1,7.64697E2,1.6152026E2,1.3250325E2,4.4906494E1,2.3962718E2,0E0,3.998231E2,6.734309E2,7.682971E1,0E0,5.272421E2,0E0,8.918396E1,0E0,7.592013E1,1.6470261E0,2.1755615E1,0E0,7.652451E1,1.9687555E2,1.7056805E2,3.0727557E2,1.3326416E0,4.7753287E2,0E0,2.3028687E1,1.2664005E3,1.2190817E3,1.8228708E2,2.8114624E1,0E0,0E0,0E0,0E0,0E0,0E0,0E0,0E0,0E0,0E0,0E0,0E0,0E0,0E0,0E0,0E0,0E0,0E0,0E0,0E0,0E0,0E0,0E0,0E0,0E0,0E0,0E0,0E0],"parents":[2147483647,0,0,1,1,2,2,3,3,4,4,6,6,7,7,8,8,9,9,10,10,11,11,12,12,13,13,14,14,15,15,17,17,18,18,19,19,21,21,23,23,25,25,26,26,27,27,29,29,30,30,31,31,32,32,33,33,34,34,36,36,37,37,38,38,39,39,40,40],"right_children":[2,4,6,8,10,-1,12,14,16,18,20,22,24,26,28,30,-1,32,34,36,-1,38,-1,40,-1,42,44,46,-1,48,50,52,54,56,58,-1,60,62,64,66,68,-1,-1,-1,-1,-1,-1,-1,-1,-1,-1,-1,-1,-1,-1,-1,-1,-1,-1,-1,-1,-1,-1,-1,-1,-1,-1,-1,-1],"split_conditions":[-3.9565042E-1,-7.256321E-1,-2.0351992E0,7.9691845E-1,3.6704305E-1,6.821006E-2,1.8743125E0,-1.5850996E0,1.7703159E0,-6.7600644E-1,1.4452108E0,2.8679152E0,1.1482297E0,2.1801102E0,1.6082876E0,-1.4220867E0,-8.269993E-2,-1.3858485E0,2.3308665E-1,-2.2200944E0,-6.701067E-2,2.1801102E0,6.864893E-2,-4.3749866E-1,6.9095165E-2,9.1376805E-1,-5.77101E-1,-1.6809599E0,-7.2065E-2,-9.790375E-1,-6.5522027E-1,-4.9634552E-1,2.1801102E0,-4.5037696E-1,1.9798402E0,-9.1520585E-2,6.4149374E-1,8.4341365E-1,-4.3749866E-1,4.8509458E-1,-1.4220867E0,7.348351E-2,-7.863643E-2,-8.7739475E-2,-1.4398098E-2,2.1543423E-2,6.6656776E-2,-8.491614E-2,6.296049E-2,5.594268E-2,-6.5960023E-3,-9.620621E-2,5.3601023E-2,3.1618213E-3,-7.717734E-2,7.076643E-2,8.04586E-2,-3.942796E-3,7.502647E-2,7.014428E-2,1.9903531E-2,-3.5639413E-2,2.3305504E-2,5.545823E-2,-2.3271035E-2,4.550039E-2,-7.5533554E-2,5.8290478E-2,-7.402302E-2],"split_indices":[2,1,11,12,1,0,18,4,19,4,4,16,9,6,7,3,0,12,4,10,0,6,0,7,0,3,2,9,0,4,0,2,6,12,11,0,11,1,7,12,3,0,0,0,0,0,0,0,0,0,0,0,0,0,0,0,0,0,0,0,0,0,0,0,0,0,0,0,0],"split_type":[0,0,0,0,0,0,0,0,0,0,0,0,0,0,0,0,0,0,0,0,0,0,0,0,0,0,0,0,0,0,0,0,0,0,0,0,0,0,0,0,0,0,0,0,0,0,0,0,0,0,0,0,0,0,0,0,0,0,0,0,0,0,0,0,0,0,0,0,0],"sum_hessian":[1.4322654E4,5.864705E3,8.457949E3,1.6900228E3,4.174682E3,2.3533891E2,8.22261E3,9.3933984E2,7.506829E2,3.7723547E3,4.0232736E2,7.496667E3,7.2594366E2,8.807461E1,8.5126526E2,6.921588E2,5.8524143E1,1.2214773E3,2.5508774E3,3.901023E2,1.2225056E1,7.203187E3,2.9348E2,7.03454E2,2.2489658E1,6.476455E1,2.3310059E1,8.4603784E2,5.2274017E0,6.419473E1,6.2796405E2,2.2022418E2,1.00125305E3,3.833109E2,2.1675667E3,6.9798527E0,3.8312244E2,5.1480737E3,2.0551133E3,1.272112E2,5.762428E2,5.6026722E1,8.737826E0,2.2068445E1,1.2416131E0,2.8857994E1,8.171799E2,5.4565563E1,9.629173E0,4.543234E2,1.7364067E2,1.9987222E2,2.0351957E1,8.642391E2,1.3701398E2,1.9994662E2,1.8336427E2,1.9563734E3,2.1119327E2,3.577392E2,2.5383232E1,3.9659036E3,1.18217E3,8.120913E2,1.2430221E3,5.143634E1,7.5774864E1,3.3527176E0,5.728901E2],"tree_param":{"num_deleted":"0","num_feature":"20","num_nodes":"69","size_leaf_vector":"1"}},{"base_weights":[1.9212482E-3,6.787381E-2,-6.0273834E-2,2.8410923E-1,-2.7776352E-1,3.7915608E-1,-8.211198E-1,-3.2626948E-1,6.802892E-2,-3.21249E-2,5.8731365E-1,-1.2020224E0,7.7312455E-2,-2.4322101E-1,-1.1719495E0,-1.5591507E0,2.4653436E-1,9.463251E-1,2.0363782E-1,-1.8836458E0,1.2024181E-1,-3.354397E-1,6.511383E-1,-1.255136E0,6.791528E-2,-9.181406E-2,7.341807E-2,2.6960531E-2,-7.310038E-2,5.840236E-2,1.5032975E-3,4.3934785E-2,-1.1985839E-2,-1.08287275E-1,-8.763074E-2,7.214496E-2,-4.037285E-2,-3.3646256E-3,-3.3283096E-2,6.80088E-2,-3.8318094E-2,-3.1179491E-2,-7.011346E-2],"categories":[],"categories_nodes":[],"categories_segments":[],"categories_sizes":[],"default_left":[0,0,0,0,0,0,0,0,0,0,0,0,0,0,0,0,0,0,0,0,0,0,0,0,0,0,0,0,0,0,0,0,0,0,0,0,0,0,0,0,0,0,0],"id":11,"left_children":[1,-1,3,5,7,9,11,13,-1,15,17,19,-1,21,23,25,27,29,31,33,35,37,39,41,-1,-1,-1,-1,-1,-1,-1,-1,-1,-1,-1,-1,-1,-1,-1,-1,-1,-1,-1],"loss_changes":[1.1995212E3,0E0,1.01898364E3,5.5351434E2,6.6309204E2,4.1521924E2,3.7818088E2,5.685585E2,0E0,6.942788E2,4.4336206E2,3.247367E2,0E0,6.086025E2,1.540954E2,2.1395319E2,6.908102E2,3.378651E2,4.6646658E2,4.9883423E0,1.5259497E2,5.921299E2,6.9437366E2,6.430786E1,0E0,0E0,0E0,0E0,0E0,0E0,0E0,0E0,0E0,0E0,0E0,0E0,0E0,0E0,0E0,0E0,0E0,0E0,0E0],"parents":[2147483647,0,0,2,2,3,3,4,4,5,5,6,6,7,7,9,9,10,10,11,11,13,13,14,14,15,15,16,16,17,17,18,18,19,19,20,20,21,21,22,22,23,23],"right_children":[2,-1,4,6,8,10,12,14,-1,16,18,20,-1,22,24,26,28,30,32,34,36,38,40,42,-1,-1,-1,-1,-1,-1,-1,-1,-1,-1,-1,-1,-1,-1,-1,-1,-1,-1,-1],"split_conditions":[-1.3660259E0,6.787381E-2,-4.1957796E-1,1.7703159E0,3.4081962E0,-6.7600644E-1,3.4081962E0,1.8743125E0,6.802892E-2,-7.378967E-1,4.4659713E-1,3.8364592E-1,7.7312455E-2,1.2257711E0,1.1482297E0,1.7368975E0,2.1801102E0,1.4452108E0,-4.5037696E-1,-3.452299E-1,-4.5037696E-1,3.8364592E-1,1.1384959E0,-4.3749866E-1,6.791528E-2,-9.181406E-2,7.341807E-2,2.6960531E-2,-7.310038E-2,5.840236E-2,1.5032975E-3,4.3934785E-2,-1.1985839E-2,-1.08287275E-1,-8.763074E-2,7.214496E-2,-4.037285E-2,-3.3646256E-3,-3.3283096E-2,6.80088E-2,-3.8318094E-2,-3.1179491E-2,-7.011346E-2],"split_indices":[11,0,2,19,16,4,16,18,0,9,3,8,0,10,9,15,6,4,12,8,12,8,0,7,0,0,0,0,0,0,0,0,0,0,0,0,0,0,0,0,0,0,0],"split_type":[0,0,0,0,0,0,0,0,0,0,0,0,0,0,0,0,0,0,0,0,0,0,0,0,0,0,0,0,0,0,0,0,0,0,0,0,0,0,0,0,0,0,0],"sum_hessian":[1.422573E4,6.23153E2,1.3602578E4,5.2651665E3,8.337411E3,4.848836E3,4.1633047E2,8.098444E3,2.3896768E2,1.629698E3,3.219138E3,3.5905228E2,5.7278187E1,7.37544E3,7.2300385E2,2.5079121E2,1.3789069E3,1.6622645E3,1.5568734E3,2.366403E2,1.22411964E2,6.6865996E3,6.8884015E2,7.004784E2,2.2525476E1,2.3012009E2,2.067112E1,1.1778273E3,2.0107951E2,1.3381708E3,3.2409366E2,6.167775E2,9.4009595E2,7.01291E1,1.6651122E2,5.0234814E1,7.217715E1,3.690799E3,2.9958008E3,4.5919162E2,2.2964853E2,1.3334663E2,5.671318E2],"tree_param":{"num_deleted":"0","num_feature":"20","num_nodes":"43","size_leaf_vector":"1"}},{"base_weights":[1.9630205E-3,6.669548E-2,-5.7548214E-2,-1.0520029E-1,1.4173723E0,2.6660752E-1,-3.0086035E-1,7.835557E-2,6.7316376E-2,3.7705797E-1,-1.1873562E0,9.230443E-1,-3.7039876E-1,-7.538384E-2,6.352033E-1,-1.8047897E0,3.2193083E-1,-6.541371E-1,1.8867621E0,-2.9116562E-1,-1.1632711E0,-7.769687E-2,9.809814E-3,4.8208058E-2,1.2619014E-2,-1.02986954E-1,-8.454474E-2,6.948301E-2,-2.1212993E-2,5.9731383E-2,-6.0414024E-2,8.03874E-2,9.770979E-2,-1.9212062E-2,3.150557E-2,-6.252993E-2,6.716477E-2],"categories":[],"categories_nodes":[],"categories_segments":[],"categories_sizes":[],"default_left":[0,0,0,0,0,0,0,0,0,0,0,0,0,0,0,0,0,0,0,0,0,0,0,0,0,0,0,0,0,0,0,0,0,0,0,0,0],"id":12,"left_children":[1,-1,3,5,7,9,11,-1,-1,13,15,17,19,21,23,25,27,29,31,33,35,-1,-1,-1,-1,-1,-1,-1,-1,-1,-1,-1,-1,-1,-1,-1,-1],"loss_changes":[1.1193912E3,0E0,9.502383E2,9.527801E2,2.3915405E0,7.256653E2,7.3065466E2,0E0,0E0,4.9033972E2,2.9792096E2,7.0287506E2,5.0979602E2,6.130277E2,3.363678E2,3.0968018E0,7.507005E1,1.815741E2,2.2541504E0,6.334023E2,1.6309564E2,0E0,0E0,0E0,0E0,0E0,0E0,0E0,0E0,0E0,0E0,0E0,0E0,0E0,0E0,0E0,0E0],"parents":[2147483647,0,0,2,2,3,3,4,4,5,5,6,6,9,9,10,10,11,11,12,12,13,13,14,14,15,15,16,16,17,17,18,18,19,19,20,20],"right_children":[2,-1,4,6,8,10,12,-1,-1,14,16,18,20,22,24,26,28,30,32,34,36,-1,-1,-1,-1,-1,-1,-1,-1,-1,-1,-1,-1,-1,-1,-1,-1],"split_conditions":[-1.3660259E0,6.669548E-2,3.4081962E0,-5.093063E-1,-2.6712534E-1,1.7703159E0,-9.5491576E-1,7.835557E-2,6.7316376E-2,-6.7600644E-1,3.8364592E-1,-4.758726E-2,1.8743125E0,-7.378967E-1,-3.8026336E-1,-3.452299E-1,-4.5037696E-1,-3.477953E-1,-3.9565042E-1,1.2257711E0,1.1482297E0,-7.769687E-2,9.809814E-3,4.8208058E-2,1.2619014E-2,-1.02986954E-1,-8.454474E-2,6.948301E-2,-2.1212993E-2,5.9731383E-2,-6.0414024E-2,8.03874E-2,9.770979E-2,-1.9212062E-2,3.150557E-2,-6.252993E-2,6.716477E-2],"split_indices":[11,0,16,2,1,19,3,0,0,4,8,5,18,9,1,8,12,2,2,10,9,0,0,0,0,0,0,0,0,0,0,0,0,0,0,0,0],"split_type":[0,0,0,0,0,0,0,0,0,0,0,0,0,0,0,0,0,0,0,0,0,0,0,0,0,0,0,0,0,0,0,0,0,0,0,0,0],"sum_hessian":[1.412003E4,6.0298346E2,1.3517047E4,1.3094902E4,4.2214447E2,4.514931E3,8.579972E3,1.2906328E2,2.930812E2,4.1968574E3,3.1807388E2,4.6061868E2,8.1193525E3,1.5249104E3,2.6719468E3,2.2559113E2,9.248275E1,1.748263E2,2.857924E2,7.3829307E3,7.3642194E2,2.35898E2,1.2890125E3,1.4362585E3,1.2356882E3,6.438451E1,1.6120662E2,3.7689804E1,5.4792942E1,4.0050785E1,1.3477551E2,6.046277E1,2.2532962E2,6.7060127E3,6.769181E2,7.1211334E2,2.4308569E1],"tree_param":{"num_deleted":"0","num_feature":"20","num_nodes":"37","size_leaf_vector":"1"}},{"base_weights":[1.9884887E-3,6.561225E-2,-5.4908153E-2,-1.00388266E-1,1.3891742E0,2.552922E-1,-2.866998E-1,7.624699E-2,6.618141E-2,3.609655E-1,-1.1422985E0,8.850505E-1,-3.528851E-1,-7.191484E-2,6.097021E-1,-1.7372531E0,3.1015003E-1,-1.0483139E0,1.6089239E0,1.0109903E-1,-3.7884086E-1,7.5532235E-3,-8.8218205E-2,1.5135735E-2,5.097742E-2,-9.7850524E-2,-8.180698E-2,6.805715E-2,-2.0147704E-2,5.2286148E-2,-8.296828E-2,3.0845672E-2,9.0857215E-2,-2.6858514E-2,2.9272751E-3],"categories":[],"categories_nodes":[],"categories_segments":[],"categories_sizes":[],"default_left":[0,0,0,0,0,0,0,0,0,0,0,0,0,0,0,0,0,0,0,0,0,0,0,0,0,0,0,0,0,0,0,0,0,0,0],"id":13,"left_children":[1,-1,3,5,7,9,11,-1,-1,13,15,17,19,21,23,25,27,29,31,-1,33,-1,-1,-1,-1,-1,-1,-1,-1,-1,-1,-1,-1,-1,-1],"loss_changes":[1.045808E3,0E0,8.831437E2,8.638735E2,1.6351929E0,6.622583E2,6.6375165E2,0E0,0E0,4.487307E2,2.7297015E2,6.4218054E2,4.9994147E2,5.744763E2,3.3267432E2,1.7710571E0,6.984474E1,1.6203659E2,6.774036E1,0E0,5.5482556E2,0E0,0E0,0E0,0E0,0E0,0E0,0E0,0E0,0E0,0E0,0E0,0E0,0E0,0E0],"parents":[2147483647,0,0,2,2,3,3,4,4,5,5,6,6,9,9,10,10,11,11,12,12,13,13,14,14,15,15,16,16,17,17,18,18,20,20],"right_children":[2,-1,4,6,8,10,12,-1,-1,14,16,18,20,22,24,26,28,30,32,-1,34,-1,-1,-1,-1,-1,-1,-1,-1,-1,-1,-1,-1,-1,-1],"split_conditions":[-1.3660259E0,6.561225E-2,3.4081962E0,-5.093063E-1,-2.6712534E-1,1.7703159E0,-9.5491576E-1,7.624699E-2,6.618141E-2,-6.7600644E-1,3.8364592E-1,-4.5037696E-1,-1.4014828E0,2.1801102E0,1.1125218E0,-3.452299E-1,-4.5037696E-1,-3.477953E-1,-4.758726E-2,1.0109903E-1,2.1801102E0,7.5532235E-3,-8.8218205E-2,1.5135735E-2,5.097742E-2,-9.7850524E-2,-8.180698E-2,6.805715E-2,-2.0147704E-2,5.2286148E-2,-8.296828E-2,3.0845672E-2,9.0857215E-2,-2.6858514E-2,2.9272751E-3],"split_indices":[11,0,16,2,1,19,3,0,0,4,8,12,1,6,8,8,12,2,5,0,6,0,0,0,0,0,0,0,0,0,0,0,0,0,0],"split_type":[0,0,0,0,0,0,0,0,0,0,0,0,0,0,0,0,0,0,0,0,0,0,0,0,0,0,0,0,0,0,0,0,0,0,0],"sum_hessian":[1.4026463E4,5.828194E2,1.3443644E4,1.3034077E4,4.0956638E2,4.4803794E3,8.553697E3,1.2610339E2,2.8346298E2,4.1661167E3,3.142627E2,4.5665546E2,8.0970415E3,1.5205648E3,2.645552E3,2.2280203E2,9.146067E1,1.2427804E2,3.323774E2,8.670744E1,8.0103345E3,1.3443572E3,1.7620763E2,1.5135759E3,1.1319762E3,6.4425964E1,1.5837605E2,3.660396E1,5.485671E1,2.7912441E1,9.63656E1,5.8349533E1,2.740279E2,5.881179E3,2.1291553E3],"tree_param":{"num_deleted":"0","num_feature":"20","num_nodes":"35","size_leaf_vector":"1"}},{"base_weights":[2.02639E-3,6.461412E-2,-5.2307907E-2,7.186264E-1,-1.3261418E-1,9.896457E-1,-7.0796764E-1,-2.4107412E-1,5.499494E-1,5.1404434E-1,1.5606393E0,7.0545904E-2,-9.0246625E-2,1.852089E-1,-4.723857E-1,1.8380239E0,-1.9756007E-1,1.2260208E0,-1.2715366E0,-4.5727964E-2,1.5713536E0,-7.79169E-2,1.1075218E0,-6.510085E-1,7.3683946E-3,7.526071E-2,1.0124377E-1,-4.5555353E-1,1.8257446E0,7.123724E-2,-5.325557E-2,6.626868E-2,-9.50767E-2,6.862218E-2,8.339608E-2,-1.2332943E-2,6.9065526E-2,6.3725464E-2,-8.436748E-2,-1.5087003E-2,-5.24637E-2,-9.6045155E-3,8.2374476E-2,2.5190065E-2,-8.0812536E-2,1.0021048E-1,6.28884E-2],"categories":[],"categories_nodes":[],"categories_segments":[],"categories_sizes":[],"default_left":[0,0,0,0,0,0,0,0,0,0,0,0,0,0,0,0,0,0,0,0,0,0,0,0,0,0,0,0,0,0,0,0,0,0,0,0,0,0,0,0,0,0,0,0,0,0,0],"id":14,"left_children":[1,-1,3,5,7,9,11,13,15,17,19,-1,-1,21,23,25,27,29,31,-1,33,35,37,39,41,-1,-1,43,45,-1,-1,-1,-1,-1,-1,-1,-1,-1,-1,-1,-1,-1,-1,-1,-1,-1,-1],"loss_changes":[9.780398E2,0E0,8.2891583E2,4.8906622E2,8.977711E2,2.8756836E2,4.726136E2,1.0318196E3,1.601418E3,7.399574E2,1.4221069E1,0E0,0E0,8.934682E2,5.812844E2,3.4930664E1,5.5055365E2,1.9081378E2,2.7421246E2,0E0,6.937622E0,7.058169E2,3.835327E2,6.872366E2,6.0267346E2,0E0,0E0,1.0417465E3,9.571472E0,0E0,0E0,0E0,0E0,0E0,0E0,0E0,0E0,0E0,0E0,0E0,0E0,0E0,0E0,0E0,0E0,0E0,0E0],"parents":[2147483647,0,0,2,2,3,3,4,4,5,5,6,6,7,7,8,8,9,9,10,10,13,13,14,14,15,15,16,16,17,17,18,18,20,20,21,21,22,22,23,23,24,24,27,27,28,28],"right_children":[2,-1,4,6,8,10,12,14,16,18,20,-1,-1,22,24,26,28,30,32,-1,34,36,38,40,42,-1,-1,44,46,-1,-1,-1,-1,-1,-1,-1,-1,-1,-1,-1,-1,-1,-1,-1,-1,-1,-1],"split_conditions":[-1.3660259E0,6.461412E-2,-1.4220867E0,7.899731E-1,1.1087422E0,-7.9743385E-1,-3.452299E-1,-6.99444E-2,3.8364592E-1,7.9691845E-1,-1.3858485E0,7.0545904E-2,-9.0246625E-2,-6.7600644E-1,1.1991303E0,-3.477953E-1,7.289445E-1,-6.115637E-1,-2.8341407E-2,-4.5727964E-2,8.391487E-1,4.2633634E0,6.4149374E-1,-4.3749866E-1,1.9798402E0,7.526071E-2,1.0124377E-1,-3.3583152E-1,-4.758726E-2,7.123724E-2,-5.325557E-2,6.626868E-2,-9.50767E-2,6.862218E-2,8.339608E-2,-1.2332943E-2,6.9065526E-2,6.3725464E-2,-8.436748E-2,-1.5087003E-2,-5.24637E-2,-9.6045155E-3,8.2374476E-2,2.5190065E-2,-8.0812536E-2,1.0021048E-1,6.28884E-2],"split_indices":[11,0,3,7,12,2,8,4,8,12,12,0,0,4,7,2,2,0,7,0,4,13,11,7,11,0,0,2,5,0,0,0,0,0,0,0,0,0,0,0,0,0,0,0,0,0,0],"split_type":[0,0,0,0,0,0,0,0,0,0,0,0,0,0,0,0,0,0,0,0,0,0,0,0,0,0,0,0,0,0,0,0,0,0,0,0,0,0,0,0,0,0,0,0,0,0,0],"sum_hessian":[1.3949076E4,5.627553E2,1.3386321E4,1.2621193E3,1.2124202E4,1.0608828E3,2.012365E2,1.0462369E4,1.6618326E3,5.798253E2,4.8105743E2,6.854654E1,1.3268997E2,3.680251E3,6.782118E3,6.097244E2,1.0521083E3,4.1475906E2,1.6506625E2,1.7097529E0,4.793477E2,2.8640767E3,8.1617426E2,4.941816E3,1.840302E3,2.2249113E2,3.8723328E2,9.338119E2,1.1829638E2,3.820037E2,3.275538E1,3.201082E1,1.3305544E2,1.6163191E2,3.1771576E2,2.5679548E3,2.9612192E2,7.7067224E2,4.5502007E1,2.6337996E3,2.3080164E3,1.6415521E3,1.9874983E2,5.1155807E2,4.222538E2,8.808908E1,3.0207298E1],"tree_param":{"num_deleted":"0","num_feature":"20","num_nodes":"47","size_leaf_vector":"1"}},{"base_weights":[2.1179134E-3,6.3692465E-2,-4.981076E-2,-9.284544E-2,1.359938E0,6.6503215E-1,-1.6854702E-1,7.461818E-2,6.4706445E-2,9.390703E-1,-6.844119E-1,-2.7332205E-1,4.9957672E-1,5.0738466E-1,1.5662665E0,6.9101535E-2,-8.675577E-2,1.286219E-1,-4.8644683E-1,1.788758E0,-2.2104278E-1,5.897502E-2,-5.452136E-2,-3.984117E-2,7.8789435E-2,-5.954592E-3,5.2933067E-2,-3.215936E-2,4.757333E-3,7.439117E-2,9.641108E-2,-2.3993863E-2,8.7083004E-2],"categories":[],"categories_nodes":[],"categories_segments":[],"categories_sizes":[],"default_left":[0,0,0,0,0,0,0,0,0,0,0,0,0,0,0,0,0,0,0,0,0,0,0,0,0,0,0,0,0,0,0,0,0],"id":15,"left_children":[1,-1,3,5,7,9,11,-1,-1,13,15,17,19,21,23,-1,-1,25,27,29,31,-1,-1,-1,-1,-1,-1,-1,-1,-1,-1,-1,-1],"loss_changes":[9.155217E2,0E0,8.081918E2,7.416999E2,1.5076904E0,4.3481012E2,8.2286206E2,0E0,0E0,2.6354193E2,4.33941E2,8.7042804E2,1.4808387E3,6.239038E2,1.020105E1,0E0,0E0,8.1138873E2,6.053435E2,2.111621E1,5.2057733E2,0E0,0E0,0E0,0E0,0E0,0E0,0E0,0E0,0E0,0E0,0E0,0E0],"parents":[2147483647,0,0,2,2,3,3,4,4,5,5,6,6,9,9,10,10,11,11,12,12,13,13,14,14,17,17,18,18,19,19,20,20],"right_children":[2,-1,4,6,8,10,12,-1,-1,14,16,18,20,22,24,-1,-1,26,28,30,32,-1,-1,-1,-1,-1,-1,-1,-1,-1,-1,-1,-1],"split_conditions":[-1.3660259E0,6.3692465E-2,3.4081962E0,-1.4220867E0,-2.6712534E-1,7.899731E-1,1.1087422E0,7.461818E-2,6.4706445E-2,-7.854701E-1,-3.452299E-1,-6.99444E-2,3.8364592E-1,7.9691845E-1,-1.3858485E0,6.9101535E-2,-8.675577E-2,-6.7600644E-1,2.1801102E0,-3.6873192E-1,7.060139E-1,5.897502E-2,-5.452136E-2,-3.984117E-2,7.8789435E-2,-5.954592E-3,5.2933067E-2,-3.215936E-2,4.757333E-3,7.439117E-2,9.641108E-2,-2.3993863E-2,8.7083004E-2],"split_indices":[11,0,16,3,1,7,12,0,0,2,8,4,8,12,12,0,0,4,6,2,2,0,0,0,0,0,0,0,0,0,0,0,0],"split_type":[0,0,0,0,0,0,0,0,0,0,0,0,0,0,0,0,0,0,0,0,0,0,0,0,0,0,0,0,0,0,0,0,0],"sum_hessian":[1.3861321E4,5.4287213E2,1.3318449E4,1.2924834E4,3.9361566E2,1.1730631E3,1.17517705E4,1.2347445E2,2.701412E2,9.7530695E2,1.9775618E2,1.0159198E4,1.5925724E3,5.787647E2,3.9654227E2,6.655183E1,1.3120435E2,3.520357E3,6.6388413E3,5.704897E2,1.02208276E3,4.0757925E2,1.7118542E2,1.2596598E0,3.9528262E2,2.780618E3,7.397389E2,5.2294033E3,1.409438E3,1.843555E2,3.8613422E2,9.036659E2,1.1841684E2],"tree_param":{"num_deleted":"0","num_feature":"20","num_nodes":"33","size_leaf_vector":"1"}},{"base_weights":[2.2205652E-3,6.283974E-2,-4.7365356E-2,-8.838301E-2,1.3364807E0,2.3930462E-1,-2.5778773E-1,7.285874E-2,6.377235E-2,3.3914417E-1,-1.0965693E0,8.034963E-1,-3.1603026E-1,9.092392E-1,1.5325822E-1,-1.6452864E0,2.6739982E-1,-6.0409933E-1,1.6622672E0,-2.4159211E-1,-1.0874437E0,1.7446621E-3,5.4672755E-2,-2.0131107E-2,2.2505883E-2,-9.091611E-2,-7.809302E-2,6.581443E-2,-2.0979846E-2,-4.7603782E-2,9.16304E-2,7.245251E-2,8.547918E-2,-1.6395373E-2,3.0906519E-2,-5.877359E-2,6.7037284E-2],"categories":[],"categories_nodes":[],"categories_segments":[],"categories_sizes":[],"default_left":[0,0,0,0,0,0,0,0,0,0,0,0,0,0,0,0,0,0,0,0,0,0,0,0,0,0,0,0,0,0,0,0,0,0,0,0,0],"id":16,"left_children":[1,-1,3,5,7,9,11,-1,-1,13,15,17,19,21,23,25,27,29,31,33,35,-1,-1,-1,-1,-1,-1,-1,-1,-1,-1,-1,-1,-1,-1,-1,-1],"loss_changes":[8.5774036E2,0E0,7.5299945E2,7.152157E2,9.546509E-1,5.8599994E2,5.252228E2,0E0,0E0,4.3289908E2,2.2914597E2,5.354455E2,4.6209753E2,1.6176654E2,5.0889166E2,3.0773926E-1,6.434252E1,1.4441794E2,2.956543E-1,5.4522314E2,1.5297662E2,0E0,0E0,0E0,0E0,0E0,0E0,0E0,0E0,0E0,0E0,0E0,0E0,0E0,0E0,0E0,0E0],"parents":[2147483647,0,0,2,2,3,3,4,4,5,5,6,6,9,9,10,10,11,11,12,12,13,13,14,14,15,15,16,16,17,17,18,18,19,19,20,20],"right_children":[2,-1,4,6,8,10,12,-1,-1,14,16,18,20,22,24,26,28,30,32,34,36,-1,-1,-1,-1,-1,-1,-1,-1,-1,-1,-1,-1,-1,-1,-1,-1],"split_conditions":[-1.3660259E0,6.283974E-2,3.4081962E0,-5.093063E-1,-2.6712534E-1,1.7703159E0,-9.5491576E-1,7.285874E-2,6.377235E-2,-7.732691E-1,3.8364592E-1,-4.758726E-2,1.8743125E0,-1.0522511E0,-6.7600644E-1,-3.452299E-1,-4.5037696E-1,1.1421797E0,-3.9565042E-1,1.2257711E0,1.1482297E0,1.7446621E-3,5.4672755E-2,-2.0131107E-2,2.2505883E-2,-9.091611E-2,-7.809302E-2,6.581443E-2,-2.0979846E-2,-4.7603782E-2,9.16304E-2,7.245251E-2,8.547918E-2,-1.6395373E-2,3.0906519E-2,-5.877359E-2,6.7037284E-2],"split_indices":[11,0,16,2,1,19,3,0,0,1,8,5,18,9,4,8,12,4,2,10,9,0,0,0,0,0,0,0,0,0,0,0,0,0,0,0,0],"split_type":[0,0,0,0,0,0,0,0,0,0,0,0,0,0,0,0,0,0,0,0,0,0,0,0,0,0,0,0,0,0,0,0,0,0,0,0,0],"sum_hessian":[1.3786037E4,5.23238E2,1.3262799E4,1.2881911E4,3.8088794E2,4.389902E3,8.492009E3,1.20239525E2,2.606484E2,4.0853225E3,3.0457968E2,4.4112473E2,8.0508843E3,1.00357117E3,3.0817512E3,2.1705386E2,8.752581E1,1.6726321E2,2.738615E2,7.343573E3,7.073109E2,1.7485316E2,8.2871796E2,1.0727084E3,2.0090428E3,6.3842037E1,1.5321184E2,3.4276833E1,5.324898E1,1.4689502E2,2.0368206E1,5.5480354E1,2.1838116E2,6.6741167E3,6.694564E2,6.83064E2,2.4246914E1],"tree_param":{"num_deleted":"0","num_feature":"20","num_nodes":"37","size_leaf_vector":"1"}},{"base_weights":[2.2505436E-3,6.2049355E-2,-4.5178954E-2,-8.434451E-2,1.3148782E0,6.359574E-1,-1.55081E-1,7.125522E-2,6.290747E-2,8.9795995E-1,-6.5825576E-1,-2.5452483E-1,4.7960192E-1,4.779265E-1,1.488376E0,6.740292E-2,-8.2841575E-2,1.2480501E-1,-4.549697E-1,1.7281191E0,-2.11217E-1,5.8003515E-2,-5.8758687E-2,-4.357587E-2,7.5018294E-2,-5.312557E-3,5.0776202E-2,-3.0202145E-2,4.903851E-3,7.208004E-2,9.283762E-2,2.4492126E-2,-4.5387853E-2],"categories":[],"categories_nodes":[],"categories_segments":[],"categories_sizes":[],"default_left":[0,0,0,0,0,0,0,0,0,0,0,0,0,0,0,0,0,0,0,0,0,0,0,0,0,0,0,0,0,0,0,0,0],"id":17,"left_children":[1,-1,3,5,7,9,11,-1,-1,13,15,17,19,21,23,-1,-1,25,27,29,31,-1,-1,-1,-1,-1,-1,-1,-1,-1,-1,-1,-1],"loss_changes":[8.044336E2,0E0,7.0254834E2,6.532388E2,5.154419E-1,3.893496E2,7.3688855E2,0E0,0E0,2.358476E2,3.900985E2,7.674555E2,1.3644957E3,6.3153955E2,1.2513611E1,0E0,0E0,7.183993E2,5.444895E2,1.8091553E1,4.9808954E2,0E0,0E0,0E0,0E0,0E0,0E0,0E0,0E0,0E0,0E0,0E0,0E0],"parents":[2147483647,0,0,2,2,3,3,4,4,5,5,6,6,9,9,10,10,11,11,12,12,13,13,14,14,17,17,18,18,19,19,20,20],"right_children":[2,-1,4,6,8,10,12,-1,-1,14,16,18,20,22,24,-1,-1,26,28,30,32,-1,-1,-1,-1,-1,-1,-1,-1,-1,-1,-1,-1],"split_conditions":[-1.3660259E0,6.2049355E-2,3.4081962E0,-1.4220867E0,-2.6712534E-1,7.899731E-1,1.1087422E0,7.125522E-2,6.290747E-2,-7.9743385E-1,-3.452299E-1,-6.99444E-2,3.8364592E-1,7.9691845E-1,-1.3858485E0,6.740292E-2,-8.2841575E-2,-6.7600644E-1,2.1801102E0,-3.6873192E-1,-3.3583152E-1,5.8003515E-2,-5.8758687E-2,-4.357587E-2,7.5018294E-2,-5.312557E-3,5.0776202E-2,-3.0202145E-2,4.903851E-3,7.208004E-2,9.283762E-2,2.4492126E-2,-4.5387853E-2],"split_indices":[11,0,16,3,1,7,12,0,0,2,8,4,8,12,12,0,0,4,6,2,2,0,0,0,0,0,0,0,0,0,0,0,0],"split_type":[0,0,0,0,0,0,0,0,0,0,0,0,0,0,0,0,0,0,0,0,0,0,0,0,0,0,0,0,0,0,0,0,0],"sum_hessian":[1.3689915E4,5.0391025E2,1.3186004E4,1.2817827E4,3.6817688E2,1.1454855E3,1.1672342E4,1.1690517E2,2.5127173E2,9.528876E2,1.9259789E2,1.009174E4,1.580602E3,5.578393E2,3.9504825E2,6.3887234E1,1.2871065E2,3.4891367E3,6.6026035E3,5.6249786E2,1.0181041E3,3.9510104E2,1.6273828E2,1.6345772E0,3.934137E2,2.7711658E3,7.1797095E2,5.200675E3,1.4019286E3,1.7807011E2,3.8442773E2,5.0755383E2,5.1055032E2],"tree_param":{"num_deleted":"0","num_feature":"20","num_nodes":"33","size_leaf_vector":"1"}},{"base_weights":[2.3330282E-3,6.1315488E-2,-4.300441E-2,-8.0375925E-2,1.2949393E0,4.0356487E-1,-1.8027882E-1,6.9789015E-2,6.210515E-2,8.828941E-1,-5.140537E-4,5.5153567E-1,-2.4939454E-1,-2.9010162E-2,1.141151E0,-6.683463E-1,4.781151E-1,-6.8967414E-1,9.7682333E-1,-3.3481386E-1,4.0538058E-1,-8.459257E-2,6.0014904E-2,-1.838668E-2,5.964911E-2,1.4623537E-2,-9.5938675E-2,-1.28022805E-2,6.601124E-2,2.1137789E-2,-7.85984E-2,-2.1801604E-2,7.069486E-2,-2.8829006E-3,-3.2710765E-2,8.530237E-2,-2.8994782E-2],"categories":[],"categories_nodes":[],"categories_segments":[],"categories_sizes":[],"default_left":[0,0,0,0,0,0,0,0,0,0,0,0,0,0,0,0,0,0,0,0,0,0,0,0,0,0,0,0,0,0,0,0,0,0,0,0,0],"id":18,"left_children":[1,-1,3,5,7,9,11,-1,-1,13,15,17,19,21,23,25,27,29,31,33,35,-1,-1,-1,-1,-1,-1,-1,-1,-1,-1,-1,-1,-1,-1,-1,-1],"loss_changes":[7.5495703E2,0E0,6.5606256E2,6.1714453E2,1.6601562E-1,4.2306665E2,5.3527734E2,0E0,0E0,2.3532916E2,3.7947162E2,4.827854E2,5.4085895E2,4.547695E2,6.133319E1,5.960193E2,4.2788208E2,2.300018E2,4.2093335E2,7.570771E2,1.431322E3,0E0,0E0,0E0,0E0,0E0,0E0,0E0,0E0,0E0,0E0,0E0,0E0,0E0,0E0,0E0,0E0],"parents":[2147483647,0,0,2,2,3,3,4,4,5,5,6,6,9,9,10,10,11,11,12,12,13,13,14,14,15,15,16,16,17,17,18,18,19,19,20,20],"right_children":[2,-1,4,6,8,10,12,-1,-1,14,16,18,20,22,24,26,28,30,32,34,36,-1,-1,-1,-1,-1,-1,-1,-1,-1,-1,-1,-1,-1,-1,-1,-1],"split_conditions":[-1.3660259E0,6.1315488E-2,3.4081962E0,-7.1595985E-1,-2.6712534E-1,-6.0653937E-1,-9.5491576E-1,6.9789015E-2,6.210515E-2,-1.0522511E0,-9.5512205E-1,-8.0939764E-1,1.1087422E0,-6.7600644E-1,-1.5850996E0,-1.09187886E-1,1.1125218E0,-2.8341407E-2,-4.5037696E-1,7.9691845E-1,3.8364592E-1,-8.459257E-2,6.0014904E-2,-1.838668E-2,5.964911E-2,1.4623537E-2,-9.5938675E-2,-1.28022805E-2,6.601124E-2,2.1137789E-2,-7.85984E-2,-2.1801604E-2,7.069486E-2,-2.8829006E-3,-3.2710765E-2,8.530237E-2,-2.8994782E-2],"split_indices":[11,0,16,0,1,1,3,0,0,9,0,2,12,4,4,9,8,7,12,12,8,0,0,0,0,0,0,0,0,0,0,0,0,0,0,0,0],"split_type":[0,0,0,0,0,0,0,0,0,0,0,0,0,0,0,0,0,0,0,0,0,0,0,0,0,0,0,0,0,0,0,0,0,0,0,0,0],"sum_hessian":[1.3602848E4,4.849369E2,1.3117911E4,1.2762372E4,3.555394E2,2.1832798E3,1.0579092E4,1.1350055E2,2.4203883E2,9.981101E2,1.1851698E3,9.1231305E2,9.666779E3,2.204808E2,7.776293E2,4.946238E2,6.9054596E2,2.326623E2,6.7965076E2,8.551653E3,1.1151256E3,9.355544E1,1.2692537E2,2.5622593E1,7.520067E2,2.8013596E2,2.1448785E2,3.6929037E2,3.2125558E2,1.0314012E2,1.2952217E2,1.6057832E2,5.1907245E2,4.579254E3,3.9723992E3,4.803208E2,6.348048E2],"tree_param":{"num_deleted":"0","num_feature":"20","num_nodes":"37","size_leaf_vector":"1"}},{"base_weights":[2.413658E-3,6.0633022E-2,-4.09446E-2,-7.66226E-2,6.382487E-2,2.4353944E-1,-2.1699637E-1,-7.603319E-2,6.6285527E-1,7.9292756E-1,-2.7424774E-1,4.233702E-1,-8.755537E-1,-2.801502E-1,1.0650393E0,-7.7034867E-1,1.3502283E0,-2.021816E-1,-1.0370152E0,3.837868E-2,-5.3915378E-2,4.143993E-2,-6.4222805E-2,-7.13693E-2,4.110287E-2,6.21439E-2,2.2185637E-2,5.9506554E-2,-7.080182E-2,2.9717958E-2,7.698369E-2,-1.402721E-2,3.0765085E-2,-5.6576576E-2,6.74498E-2],"categories":[],"categories_nodes":[],"categories_segments":[],"categories_sizes":[],"default_left":[0,0,0,0,0,0,0,0,0,0,0,0,0,0,0,0,0,0,0,0,0,0,0,0,0,0,0,0,0,0,0,0,0,0,0],"id":19,"left_children":[1,-1,3,5,-1,7,9,11,13,15,17,19,21,23,25,27,29,31,33,-1,-1,-1,-1,-1,-1,-1,-1,-1,-1,-1,-1,-1,-1,-1,-1],"loss_changes":[7.09061E2,0E0,6.132733E2,5.7092145E2,0E0,5.1893005E2,5.1082504E2,8.781322E2,6.355006E2,4.1401498E2,4.5922906E2,7.0058826E2,5.9032825E2,6.353594E2,1.2920447E2,1.6018654E2,4.9176147E1,4.8944977E2,1.64182E2,0E0,0E0,0E0,0E0,0E0,0E0,0E0,0E0,0E0,0E0,0E0,0E0,0E0,0E0,0E0,0E0],"parents":[2147483647,0,0,2,2,3,3,5,5,6,6,7,7,8,8,9,9,10,10,11,11,12,12,13,13,14,14,15,15,16,16,17,17,18,18],"right_children":[2,-1,4,6,-1,8,10,12,14,16,18,20,22,24,26,28,30,32,34,-1,-1,-1,-1,-1,-1,-1,-1,-1,-1,-1,-1,-1,-1,-1,-1],"split_conditions":[-1.3660259E0,6.0633022E-2,3.4081962E0,-5.611493E-1,6.382487E-2,3.8364592E-1,-9.5491576E-1,-3.452299E-1,-9.790375E-1,-4.5037696E-1,1.8743125E0,9.1376805E-1,-9.816812E-1,4.4659713E-1,1.3106669E0,-3.7870175E-1,-4.758726E-2,1.2257711E0,1.1482297E0,3.837868E-2,-5.3915378E-2,4.143993E-2,-6.4222805E-2,-7.13693E-2,4.110287E-2,6.21439E-2,2.2185637E-2,5.9506554E-2,-7.080182E-2,2.9717958E-2,7.698369E-2,-1.402721E-2,3.0765085E-2,-5.6576576E-2,6.74498E-2],"split_indices":[11,0,16,2,0,8,3,8,4,12,18,3,1,3,11,2,5,10,9,0,0,0,0,0,0,0,0,0,0,0,0,0,0,0,0],"split_type":[0,0,0,0,0,0,0,0,0,0,0,0,0,0,0,0,0,0,0,0,0,0,0,0,0,0,0,0,0,0,0,0,0,0,0],"sum_hessian":[1.3510621E4,4.6635718E2,1.3044265E4,1.270124E4,3.4302383E2,3.8711821E3,8.830059E3,2.1973428E3,1.6738392E3,4.730218E2,8.357036E3,1.3528097E3,8.4453314E2,5.0053424E2,1.173305E3,1.2421258E2,3.488092E2,7.63678E3,7.202567E2,1.1009475E3,2.5186212E2,1.632135E2,6.8131964E2,2.4511285E2,2.5542137E2,9.114311E2,2.6187396E2,3.0565222E1,9.3647354E1,7.0732155E1,2.7807706E2,6.9693647E3,6.674151E2,6.9331824E2,2.693842E1],"tree_param":{"num_deleted":"0","num_feature":"20","num_nodes":"35","size_leaf_vector":"1"}},{"base_weights":[2.4646632E-3,5.999741E-2,-3.9095294E-2,-7.32337E-2,6.298387E-2,5.9241134E-1,-1.3598114E-1,8.3323514E-1,-5.8932734E-1,-2.2550608E-1,4.423573E-1,4.463338E-1,1.4149362E0,6.570416E-2,-7.693364E-2,1.2520736E-1,-4.0949494E-1,1.6254706E0,-2.0669632E-1,5.418827E-2,-4.9342807E-2,-3.5903282E-2,7.118616E-2,-6.1580697E-3,4.515531E-2,-2.7588276E-2,5.848651E-3,6.954675E-2,8.63424E-2,-2.3470685E-2,8.765938E-2],"categories":[],"categories_nodes":[],"categories_segments":[],"categories_sizes":[],"default_left":[0,0,0,0,0,0,0,0,0,0,0,0,0,0,0,0,0,0,0,0,0,0,0,0,0,0,0,0,0,0,0],"id":20,"left_children":[1,-1,3,5,-1,7,9,11,13,15,17,19,21,-1,-1,23,25,27,29,-1,-1,-1,-1,-1,-1,-1,-1,-1,-1,-1,-1],"loss_changes":[6.664983E2,0E0,5.73965E2,5.2687665E2,0E0,3.097555E2,5.9691205E2,2.0263147E2,3.3550543E2,6.441892E2,1.1871151E3,4.979113E2,7.7752075E0,0E0,0E0,6.6390204E2,4.9049524E2,1.0618286E1,5.151382E2,0E0,0E0,0E0,0E0,0E0,0E0,0E0,0E0,0E0,0E0,0E0,0E0],"parents":[2147483647,0,0,2,2,3,3,5,5,6,6,7,7,8,8,9,9,10,10,11,11,12,12,15,15,16,16,17,17,18,18],"right_children":[2,-1,4,6,-1,8,10,12,14,16,18,20,22,-1,-1,24,26,28,30,-1,-1,-1,-1,-1,-1,-1,-1,-1,-1,-1,-1],"split_conditions":[-1.3660259E0,5.999741E-2,3.4081962E0,-1.4220867E0,6.298387E-2,7.899731E-1,1.1087422E0,-7.854701E-1,-3.452299E-1,-6.99444E-2,3.8364592E-1,7.9691845E-1,-1.3858485E0,6.570416E-2,-7.693364E-2,5.8348775E-1,2.1801102E0,-3.6873192E-1,7.060139E-1,5.418827E-2,-4.9342807E-2,-3.5903282E-2,7.118616E-2,-6.1580697E-3,4.515531E-2,-2.7588276E-2,5.848651E-3,6.954675E-2,8.63424E-2,-2.3470685E-2,8.765938E-2],"split_indices":[11,0,16,3,0,7,12,2,8,4,8,12,12,0,0,5,6,2,2,0,0,0,0,0,0,0,0,0,0,0,0],"split_type":[0,0,0,0,0,0,0,0,0,0,0,0,0,0,0,0,0,0,0,0,0,0,0,0,0,0,0,0,0,0,0],"sum_hessian":[1.3390332E4,4.482032E2,1.2942129E4,1.2611576E4,3.3055328E2,1.0856984E3,1.1525878E4,9.021468E2,1.8355153E2,9.981399E3,1.5444785E3,5.42852E2,3.592948E2,6.0954765E1,1.2259677E2,3.434668E3,6.546731E3,5.466057E2,9.978728E2,3.759062E2,1.6694582E2,1.1428943E0,3.581519E2,2.6040762E3,8.305919E2,5.153911E3,1.39282E3,1.6940623E2,3.7719946E2,8.8059216E2,1.17280624E2],"tree_param":{"num_deleted":"0","num_feature":"20","num_nodes":"31","size_leaf_vector":"1"}},{"base_weights":[2.5338498E-3,5.94046E-2,-3.7182238E-2,-6.9743834E-2,6.2201686E-2,3.4048575E-1,-1.70064E-1,8.072586E-1,8.976444E-3,5.596566E-1,-2.2979337E-1,-6.597116E-2,1.0341635E0,1.22275345E-1,-8.0936894E-2,1.2771497E0,-2.9678684E-1,-3.081101E-1,3.776459E-1,-8.0207825E-2,5.567214E-2,-2.3967545E-2,5.5564474E-2,-2.1292008E-2,2.8972084E-2,-4.1406736E-2,7.027113E-2,-7.5139515E-2,3.5919383E-2,-1.8362424E-3,-3.0924244E-2,8.033162E-2,-2.8691951E-2],"categories":[],"categories_nodes":[],"categories_segments":[],"categories_sizes":[],"default_left":[0,0,0,0,0,0,0,0,0,0,0,0,0,0,0,0,0,0,0,0,0,0,0,0,0,0,0,0,0,0,0,0,0],"id":21,"left_children":[1,-1,3,5,-1,7,9,11,13,15,17,19,21,23,-1,25,27,29,31,-1,-1,-1,-1,-1,-1,-1,-1,-1,-1,-1,-1,-1,-1],"loss_changes":[6.2681195E2,0E0,5.374496E2,5.1705493E2,0E0,3.8200995E2,4.4011078E2,2.0320496E2,2.666007E2,4.698791E2,4.4404468E2,3.871007E2,9.553168E1,3.3890076E2,0E0,1.134881E2,4.284945E2,6.9626733E2,1.2476519E3,0E0,0E0,0E0,0E0,0E0,0E0,0E0,0E0,0E0,0E0,0E0,0E0,0E0,0E0],"parents":[2147483647,0,0,2,2,3,3,5,5,6,6,7,7,8,8,9,9,10,10,11,11,12,12,13,13,15,15,16,16,17,17,18,18],"right_children":[2,-1,4,6,-1,8,10,12,14,16,18,20,22,24,-1,26,28,30,32,-1,-1,-1,-1,-1,-1,-1,-1,-1,-1,-1,-1,-1,-1],"split_conditions":[-1.3660259E0,5.94046E-2,3.4081962E0,-6.666089E-1,6.2201686E-2,-6.571538E-1,-9.5491576E-1,-1.0522511E0,2.1801102E0,-3.452299E-1,1.1087422E0,-6.7600644E-1,-1.5850996E0,1.1125218E0,-8.0936894E-2,-8.6821955E-1,1.1125218E0,7.9691845E-1,3.8364592E-1,-8.0207825E-2,5.567214E-2,-2.3967545E-2,5.5564474E-2,-2.1292008E-2,2.8972084E-2,-4.1406736E-2,7.027113E-2,-7.5139515E-2,3.5919383E-2,-1.8362424E-3,-3.0924244E-2,8.033162E-2,-2.8691951E-2],"split_indices":[11,0,16,0,0,1,3,9,6,8,12,4,4,8,0,2,8,12,8,0,0,0,0,0,0,0,0,0,0,0,0,0,0],"split_type":[0,0,0,0,0,0,0,0,0,0,0,0,0,0,0,0,0,0,0,0,0,0,0,0,0,0,0,0,0,0,0,0,0],"sum_hessian":[1.3310204E4,4.3050024E2,1.2879704E4,1.2561406E4,3.1829758E2,2.4677756E3,1.0093631E4,1.0242179E3,1.4435577E3,7.6304565E2,9.330585E3,2.1139316E2,8.128247E2,1.3504808E3,9.307687E1,4.1493716E2,3.4810846E2,8.265423E3,1.0651624E3,9.158646E1,1.19806694E2,3.9158913E1,7.736658E2,6.141817E2,7.362992E2,2.3516445E1,3.9142072E2,1.588811E2,1.8922736E2,4.4102817E3,3.8551409E3,4.6450082E2,6.0066156E2],"tree_param":{"num_deleted":"0","num_feature":"20","num_nodes":"33","size_leaf_vector":"1"}},{"base_weights":[2.570299E-3,5.8850992E-2,-3.5446342E-2,-6.6558726E-2,6.1473038E-2,2.6427692E-1,-1.8144557E-1,3.4894976E-1,-1.068824E0,7.9271173E-1,-2.3708488E-1,8.204345E-1,1.2756151E-1,-7.515926E-2,2.4433947E-1,-6.6455257E-1,1.2598581E0,-1.6826214E-1,-9.62211E-1,7.6264776E-3,4.8844572E-2,-2.841737E-2,1.6686974E-2,-6.4747766E-2,6.093086E-2,5.1497664E-2,-6.9314525E-2,7.1738176E-2,3.4753352E-2,-1.1927874E-2,3.0465892E-2,-5.3607356E-2,6.756778E-2],"categories":[],"categories_nodes":[],"categories_segments":[],"categories_sizes":[],"default_left":[0,0,0,0,0,0,0,0,0,0,0,0,0,0,0,0,0,0,0,0,0,0,0,0,0,0,0,0,0,0,0,0,0],"id":22,"left_children":[1,-1,3,5,-1,7,9,11,13,15,17,19,21,-1,23,25,27,29,31,-1,-1,-1,-1,-1,-1,-1,-1,-1,-1,-1,-1,-1,-1],"loss_changes":[5.899096E2,0E0,5.0374045E2,4.7484396E2,0E0,3.6386282E2,5.0277438E2,3.1602963E2,1.10203995E2,3.4204675E2,4.3762344E2,1.0095709E2,2.9606412E2,0E0,7.464913E1,1.5103004E2,3.653076E1,4.3814526E2,1.9480426E2,0E0,0E0,0E0,0E0,0E0,0E0,0E0,0E0,0E0,0E0,0E0,0E0,0E0,0E0],"parents":[2147483647,0,0,2,2,3,3,5,5,6,6,7,7,8,8,9,9,10,10,11,11,12,12,14,14,15,15,16,16,17,17,18,18],"right_children":[2,-1,4,6,-1,8,10,12,14,16,18,20,22,-1,24,26,28,30,32,-1,-1,-1,-1,-1,-1,-1,-1,-1,-1,-1,-1,-1,-1],"split_conditions":[-1.3660259E0,5.8850992E-2,3.4081962E0,-6.2894404E-1,6.1473038E-2,1.7703159E0,-9.5491576E-1,-6.571538E-1,3.8364592E-1,-4.5037696E-1,1.8743125E0,-1.0522511E0,-9.646126E-1,-7.515926E-2,-1.0522511E0,-3.477953E-1,4.2633634E0,1.2257711E0,1.1482297E0,7.6264776E-3,4.8844572E-2,-2.841737E-2,1.6686974E-2,-6.4747766E-2,6.093086E-2,5.1497664E-2,-6.9314525E-2,7.1738176E-2,3.4753352E-2,-1.1927874E-2,3.0465892E-2,-5.3607356E-2,6.756778E-2],"split_indices":[11,0,16,2,0,19,3,1,8,12,18,9,0,0,9,2,13,10,9,0,0,0,0,0,0,0,0,0,0,0,0,0,0],"split_type":[0,0,0,0,0,0,0,0,0,0,0,0,0,0,0,0,0,0,0,0,0,0,0,0,0,0,0,0,0,0,0,0,0],"sum_hessian":[1.3210334E4,4.1326804E2,1.2797066E4,1.2490783E4,3.062831E2,3.2192168E3,9.271566E3,3.0276516E3,1.9156516E2,5.0022153E2,8.771345E3,9.665371E2,2.0611145E3,1.4384138E2,4.7723774E1,1.2132507E2,3.7889645E2,8.012134E3,7.592109E2,1.8381541E2,7.827217E2,4.7068002E2,1.5904346E3,1.837048E1,2.9353294E1,3.6112537E1,8.521254E1,2.8812814E2,9.0768326E1,7.3485024E3,6.6363135E2,7.2528345E2,3.392744E1],"tree_param":{"num_deleted":"0","num_feature":"20","num_nodes":"33","size_leaf_vector":"1"}},{"base_weights":[2.5656412E-3,5.8333334E-2,-3.380832E-2,-6.352293E-2,6.079324E-2,3.6067942E-1,-1.4813367E-1,8.163344E-1,-6.670355E-3,-2.104605E-1,4.2264125E-1,-1.5863467E-2,1.0533537E0,4.7907668E-1,-5.6187046E-1,-9.066747E-2,-9.512345E-1,8.100896E-1,-1.542073E0,-7.7528484E-2,5.6570947E-2,-1.8477662E-2,5.5314668E-2,4.7862586E-2,-7.339811E-2,-8.769111E-2,1.6784554E-2,-4.623263E-4,-4.2239126E-2,-5.8517147E-2,1.0191222E-1,4.7641892E-2,-9.7442634E-2,7.9586E-2,-8.156718E-2],"categories":[],"categories_nodes":[],"categories_segments":[],"categories_sizes":[],"default_left":[0,0,0,0,0,0,0,0,0,0,0,0,0,0,0,0,0,0,0,0,0,0,0,0,0,0,0,0,0,0,0,0,0,0,0],"id":23,"left_children":[1,-1,3,5,-1,7,9,11,13,15,17,19,21,23,25,27,29,31,33,-1,-1,-1,-1,-1,-1,-1,-1,-1,-1,-1,-1,-1,-1,-1,-1],"loss_changes":[5.555258E2,0E0,4.7249835E2,4.4610892E2,0E0,3.459724E2,3.687055E2,1.8199109E2,3.0914822E2,8.28952E2,7.7801685E2,3.6358072E2,5.4500122E1,5.706444E2,5.7286676E2,4.9383835E2,8.541576E2,3.3779352E2,4.971518E1,0E0,0E0,0E0,0E0,0E0,0E0,0E0,0E0,0E0,0E0,0E0,0E0,0E0,0E0,0E0,0E0],"parents":[2147483647,0,0,2,2,3,3,5,5,6,6,7,7,8,8,9,9,10,10,11,11,12,12,13,13,14,14,15,15,16,16,17,17,18,18],"right_children":[2,-1,4,6,-1,8,10,12,14,16,18,20,22,24,26,28,30,32,34,-1,-1,-1,-1,-1,-1,-1,-1,-1,-1,-1,-1,-1,-1,-1,-1],"split_conditions":[-1.3660259E0,5.8333334E-2,3.4081962E0,-7.1595985E-1,6.079324E-2,-6.0653937E-1,1.9798402E0,-1.0522511E0,-1.09187886E-1,6.4149374E-1,1.0150781E0,-6.7600644E-1,-1.5850996E0,1.1421797E0,-9.3044657E-1,1.2470723E0,2.1801102E0,1.6082876E0,-4.8774478E-1,-7.7528484E-2,5.6570947E-2,-1.8477662E-2,5.5314668E-2,4.7862586E-2,-7.339811E-2,-8.769111E-2,1.6784554E-2,-4.623263E-4,-4.2239126E-2,-5.8517147E-2,1.0191222E-1,4.7641892E-2,-9.7442634E-2,7.9586E-2,-8.156718E-2],"split_indices":[11,0,16,0,0,1,11,9,9,11,2,4,4,4,0,16,6,7,3,0,0,0,0,0,0,0,0,0,0,0,0,0,0,0,0],"split_type":[0,0,0,0,0,0,0,0,0,0,0,0,0,0,0,0,0,0,0,0,0,0,0,0,0,0,0,0,0,0,0,0,0,0,0],"sum_hessian":[1.3117741E4,3.9652133E2,1.272122E4,1.2426688E4,2.9453146E2,2.0658965E3,1.0360792E4,9.215714E2,1.1443252E3,9.341374E3,1.0194176E3,2.0449664E2,7.1707477E2,6.10411E2,5.339142E2,8.0419985E3,1.2993759E3,8.519899E2,1.6742764E2,8.732778E1,1.1716886E2,2.5507437E1,6.915673E2,4.9046548E2,1.199455E2,2.2893588E2,3.049783E2,7.2592393E3,7.827595E2,1.2112109E3,8.816497E1,8.1069885E2,4.129109E1,4.171159E0,1.6325648E2],"tree_param":{"num_deleted":"0","num_feature":"20","num_nodes":"35","size_leaf_vector":"1"}},{"base_weights":[2.5412792E-3,5.784873E-2,-3.2228135E-2,5.8635974E-1,-8.9280166E-2,8.11632E-1,-5.8859944E-1,-1.6912235E-1,4.2875925E-1,4.1050273E-1,1.3265553E0,6.28641E-2,-7.3370755E-2,1.603834E-1,-3.4348837E-1,1.5218133E0,-1.7308769E-1,1.0499195E0,-1.0371915E0,-3.8094074E-2,1.3360251E0,-4.193373E-2,9.5780843E-1,-5.154636E-1,1.1795602E-1,6.626627E-2,8.0826476E-2,-4.2456624E-1,1.7204581E0,6.303331E-2,-5.3961944E-2,6.526985E-2,-8.152069E-2,4.6878964E-2,6.7781545E-2,-1.0531192E-2,6.938243E-2,5.673175E-2,-8.2342975E-2,-9.469919E-3,-4.479472E-2,-5.5186953E-2,1.8091269E-2,2.15025E-2,-7.3423855E-2,9.408081E-2,5.8838647E-2],"categories":[],"categories_nodes":[],"categories_segments":[],"categories_sizes":[],"default_left":[0,0,0,0,0,0,0,0,0,0,0,0,0,0,0,0,0,0,0,0,0,0,0,0,0,0,0,0,0,0,0,0,0,0,0,0,0,0,0,0,0,0,0,0,0,0,0],"id":24,"left_children":[1,-1,3,5,7,9,11,13,15,17,19,-1,-1,21,23,25,27,29,31,-1,33,35,37,39,41,-1,-1,43,45,-1,-1,-1,-1,-1,-1,-1,-1,-1,-1,-1,-1,-1,-1,-1,-1,-1,-1],"loss_changes":[5.2342914E2,0E0,4.4681784E2,2.8345206E2,4.7949783E2,1.848385E2,2.8179922E2,5.771261E2,1.0187377E3,4.6943936E2,8.781677E0,0E0,0E0,5.6089935E2,5.213198E2,8.090576E0,4.7659882E2,1.5905804E2,2.1823541E2,0E0,1.784668E0,6.692242E2,3.2591095E2,5.934297E2,5.319699E2,0E0,0E0,7.8837134E2,8.068573E0,0E0,0E0,0E0,0E0,0E0,0E0,0E0,0E0,0E0,0E0,0E0,0E0,0E0,0E0,0E0,0E0,0E0,0E0],"parents":[2147483647,0,0,2,2,3,3,4,4,5,5,6,6,7,7,8,8,9,9,10,10,13,13,14,14,15,15,16,16,17,17,18,18,20,20,21,21,22,22,23,23,24,24,27,27,28,28],"right_children":[2,-1,4,6,8,10,12,14,16,18,20,-1,-1,22,24,26,28,30,32,-1,34,36,38,40,42,-1,-1,44,46,-1,-1,-1,-1,-1,-1,-1,-1,-1,-1,-1,-1,-1,-1,-1,-1,-1,-1],"split_conditions":[-1.3660259E0,5.784873E-2,-1.4220867E0,7.899731E-1,1.1087422E0,-7.9743385E-1,-3.452299E-1,-6.99444E-2,3.8364592E-1,7.9691845E-1,-1.3858485E0,6.28641E-2,-7.3370755E-2,-6.7600644E-1,1.1991303E0,-3.477953E-1,7.060139E-1,-6.115637E-1,-2.8341407E-2,-3.8094074E-2,-4.5037696E-1,4.2633634E0,6.4149374E-1,-4.3749866E-1,-2.2200944E0,6.626627E-2,8.0826476E-2,-3.3583152E-1,-4.758726E-2,6.303331E-2,-5.3961944E-2,6.526985E-2,-8.152069E-2,4.6878964E-2,6.7781545E-2,-1.0531192E-2,6.938243E-2,5.673175E-2,-8.2342975E-2,-9.469919E-3,-4.479472E-2,-5.5186953E-2,1.8091269E-2,2.15025E-2,-7.3423855E-2,9.408081E-2,5.8838647E-2],"split_indices":[11,0,3,7,12,2,8,4,8,12,12,0,0,4,7,2,2,0,7,0,12,13,11,7,10,0,0,2,5,0,0,0,0,0,0,0,0,0,0,0,0,0,0,0,0,0,0],"split_type":[0,0,0,0,0,0,0,0,0,0,0,0,0,0,0,0,0,0,0,0,0,0,0,0,0,0,0,0,0,0,0,0,0,0,0,0,0,0,0,0,0,0,0,0,0,0,0],"sum_hessian":[1.3038495E4,3.8027048E2,1.2658225E4,1.0680958E3,1.1590129E4,8.965177E2,1.7157806E2,1.0042946E4,1.5471832E3,5.049528E2,3.915649E2,5.520137E1,1.1637669E2,3.4754128E3,6.567533E3,5.4885065E2,9.983326E2,3.5044376E2,1.5450903E2,1.4088567E0,3.9015607E2,2.7728516E3,7.025612E2,4.784344E3,1.783189E3,1.8339395E2,3.654567E2,8.8197485E2,1.1635777E2,3.192517E2,3.1192034E1,3.097816E1,1.23530876E2,2.0587189E1,3.6956888E2,2.480953E3,2.918987E2,6.5842615E2,4.413507E1,2.577059E3,2.2072852E3,2.9613528E2,1.4870537E3,4.8527985E2,3.96695E2,8.78551E1,2.8502668E1],"tree_param":{"num_deleted":"0","num_feature":"20","num_nodes":"47","size_leaf_vector":"1"}},{"base_weights":[2.5721306E-3,5.7394546E-2,-3.0744094E-2,-5.886952E-2,6.0043514E-2,5.495158E-1,-1.1251963E-1,7.7625984E-1,-5.7656175E-1,2.645322E-1,-2.1714105E-1,4.0091312E-1,1.3217748E0,6.200369E-2,-7.1693204E-2,8.7021893E-1,-1.0966815E-2,-2.8110722E-1,3.523566E-1,5.138091E-2,-5.0322425E-2,-3.744042E-2,6.662502E-2,-1.7386554E-2,5.4456618E-2,-1.2900171E-2,4.8727255E-2,-6.8831765E-3,-5.4488976E-2,3.8176343E-2,-7.3888145E-2],"categories":[],"categories_nodes":[],"categories_segments":[],"categories_sizes":[],"default_left":[0,0,0,0,0,0,0,0,0,0,0,0,0,0,0,0,0,0,0,0,0,0,0,0,0,0,0,0,0,0,0],"id":25,"left_children":[1,-1,3,5,-1,7,9,11,13,15,17,19,21,-1,-1,23,25,27,29,-1,-1,-1,-1,-1,-1,-1,-1,-1,-1,-1,-1],"loss_changes":[4.934228E2,0E0,4.353425E2,4.010796E2,0E0,2.5470996E2,4.4547296E2,1.6928195E2,2.6261288E2,4.0932654E2,3.2210324E2,4.356215E2,8.4953E0,0E0,0E0,2.0485968E2,4.109751E2,9.217286E2,6.731212E2,0E0,0E0,0E0,0E0,0E0,0E0,0E0,0E0,0E0,0E0,0E0,0E0],"parents":[2147483647,0,0,2,2,3,3,5,5,6,6,7,7,8,8,9,9,10,10,11,11,12,12,15,15,16,16,17,17,18,18],"right_children":[2,-1,4,6,-1,8,10,12,14,16,18,20,22,-1,-1,24,26,28,30,-1,-1,-1,-1,-1,-1,-1,-1,-1,-1,-1,-1],"split_conditions":[-1.3660259E0,5.7394546E-2,3.4081962E0,-1.4220867E0,6.0043514E-2,7.899731E-1,-5.7378894E-1,-7.9743385E-1,-3.452299E-1,-6.9175386E-1,1.9798402E0,7.9691845E-1,-1.3858485E0,6.200369E-2,-7.1693204E-2,-7.378967E-1,1.1087422E0,6.4149374E-1,1.0150781E0,5.138091E-2,-5.0322425E-2,-3.744042E-2,6.662502E-2,-1.7386554E-2,5.4456618E-2,-1.2900171E-2,4.8727255E-2,-6.8831765E-3,-5.4488976E-2,3.8176343E-2,-7.3888145E-2],"split_indices":[11,0,16,3,0,7,1,2,8,2,11,12,12,0,0,9,12,11,2,0,0,0,0,0,0,0,0,0,0,0,0],"split_type":[0,0,0,0,0,0,0,0,0,0,0,0,0,0,0,0,0,0,0,0,0,0,0,0,0,0,0,0,0,0,0],"sum_hessian":[1.2929222E4,3.645219E2,1.25647E4,1.2285106E4,2.795933E2,9.9481305E2,1.1290294E4,8.283327E2,1.664803E2,2.4519666E3,8.838327E3,4.9172894E2,3.366038E2,5.323279E1,1.1324751E2,7.6592206E2,1.6860444E3,7.9463022E3,8.9202496E2,3.4041174E2,1.5131718E2,1.3799735E0,3.3522382E2,1.1660245E2,6.4931964E2,1.3487051E3,3.373394E2,6.750124E3,1.1961785E3,7.288566E2,1.6316833E2],"tree_param":{"num_deleted":"0","num_feature":"20","num_nodes":"31","size_leaf_vector":"1"}},{"base_weights":[2.5935466E-3,5.696843E-2,-2.9275823E-2,-5.6133658E-2,5.945764E-2,1.874403E-1,-1.8383306E-1,2.7477142E-1,-1.0101316E0,-3.2452035E-1,1.9995126E-1,7.906479E-1,1.2264667E-1,-7.412944E-2,1.3297024E-1,-5.33876E-1,4.6848094E-1,1.1693794E0,-4.5558676E-1,7.3780783E-4,4.751625E-2,-1.820833E-2,1.903887E-2,6.28218E-2,-2.8508762E-2,-4.025167E-2,1.8031865E-2,4.7043692E-2,-5.838548E-2,9.768327E-2,-9.734866E-5,-3.4426913E-2,8.23036E-2],"categories":[],"categories_nodes":[],"categories_segments":[],"categories_sizes":[],"default_left":[0,0,0,0,0,0,0,0,0,0,0,0,0,0,0,0,0,0,0,0,0,0,0,0,0,0,0,0,0,0,0,0,0],"id":26,"left_children":[1,-1,3,5,-1,7,9,11,13,15,17,19,21,-1,23,25,27,29,31,-1,-1,-1,-1,-1,-1,-1,-1,-1,-1,-1,-1,-1,-1],"loss_changes":[4.653411E2,0E0,4.089407E2,3.8031384E2,0E0,4.4012286E2,4.3316638E2,3.0757877E2,1.5468704E2,9.747898E2,1.3683206E3,1.10578125E2,3.8075546E2,0E0,6.752548E1,1.1268242E3,9.4914386E2,7.979094E2,6.30129E2,0E0,0E0,0E0,0E0,0E0,0E0,0E0,0E0,0E0,0E0,0E0,0E0,0E0,0E0],"parents":[2147483647,0,0,2,2,3,3,5,5,6,6,7,7,8,8,9,9,10,10,11,11,12,12,14,14,15,15,16,16,17,17,18,18],"right_children":[2,-1,4,6,-1,8,10,12,14,16,18,20,22,-1,24,26,28,30,32,-1,-1,-1,-1,-1,-1,-1,-1,-1,-1,-1,-1,-1,-1],"split_conditions":[-1.3660259E0,5.696843E-2,3.4081962E0,-4.8238778E-1,5.945764E-2,1.7703159E0,2.1801102E0,-7.732691E-1,3.8364592E-1,8.4341365E-1,-4.3749866E-1,-1.0522511E0,-6.7600644E-1,-7.412944E-2,-4.5037696E-1,1.1482297E0,1.4554807E0,4.8509458E-1,1.4746865E0,7.3780783E-4,4.751625E-2,-1.820833E-2,1.903887E-2,6.28218E-2,-2.8508762E-2,-4.025167E-2,1.8031865E-2,4.7043692E-2,-5.838548E-2,9.768327E-2,-9.734866E-5,-3.4426913E-2,8.23036E-2],"split_indices":[11,0,16,2,0,19,6,1,8,1,7,9,4,0,12,9,0,12,2,0,0,0,0,0,0,0,0,0,0,0,0,0,0],"split_type":[0,0,0,0,0,0,0,0,0,0,0,0,0,0,0,0,0,0,0,0,0,0,0,0,0,0,0,0,0,0,0,0,0],"sum_hessian":[1.2842764E4,3.492793E2,1.2493484E4,1.2224963E4,2.6852106E2,4.204613E3,8.0203506E3,3.9195557E3,2.850571E2,5.869038E3,2.1513123E3,8.916495E2,3.027906E3,2.0148433E2,8.357278E1,4.6434697E3,1.2255686E3,8.675584E2,1.2837537E3,1.5236763E2,7.3928186E2,1.0490582E3,1.9788479E3,3.1868048E1,5.170473E1,3.5633865E3,1.0800833E3,9.513302E2,2.742384E2,5.192295E2,3.4832895E2,1.1562638E3,1.274899E2],"tree_param":{"num_deleted":"0","num_feature":"20","num_nodes":"33","size_leaf_vector":"1"}},{"base_weights":[2.5530457E-3,5.6568213E-2,-2.794673E-2,-5.3607672E-2,5.890862E-2,5.343499E-1,-1.0428454E-1,7.5202876E-1,-5.556904E-1,-1.7858073E-1,3.87E-1,3.8468298E-1,1.2953434E0,6.123103E-2,-6.9790654E-2,3.2054998E-2,-4.2953366E-1,1.4862411E0,-1.9609319E-1,-1.6791113E-2,6.507656E-2,6.893116E-2,6.1506152E-2,2.6321078E-2,-1.4104909E-2,-2.9234473E-2,4.0096574E-2,6.592727E-2,7.7763624E-2,-2.2105528E-2,8.145634E-2],"categories":[],"categories_nodes":[],"categories_segments":[],"categories_sizes":[],"default_left":[0,0,0,0,0,0,0,0,0,0,0,0,0,0,0,0,0,0,0,0,0,0,0,0,0,0,0,0,0,0,0],"id":27,"left_children":[1,-1,3,5,-1,7,9,11,13,15,17,19,21,-1,-1,23,25,27,29,-1,-1,-1,-1,-1,-1,-1,-1,-1,-1,-1,-1],"loss_changes":[4.391055E2,0E0,3.844229E2,3.6240057E2,0E0,2.2942874E2,4.0875732E2,1.6015189E2,2.4286047E2,5.1415894E2,9.432411E2,3.1861395E2,6.542969E-2,0E0,0E0,8.215691E2,8.4854596E2,3.8533936E0,4.327545E2,0E0,0E0,0E0,0E0,0E0,0E0,0E0,0E0,0E0,0E0,0E0,0E0],"parents":[2147483647,0,0,2,2,3,3,5,5,6,6,7,7,8,8,9,9,10,10,11,11,12,12,15,15,16,16,17,17,18,18],"right_children":[2,-1,4,6,-1,8,10,12,14,16,18,20,22,-1,-1,24,26,28,30,-1,-1,-1,-1,-1,-1,-1,-1,-1,-1,-1,-1],"split_conditions":[-1.3660259E0,5.6568213E-2,3.4081962E0,-1.4220867E0,5.890862E-2,7.899731E-1,1.1087422E0,2.958009E-1,-3.452299E-1,7.9691845E-1,3.8364592E-1,-7.9743385E-1,-6.7600644E-1,6.123103E-2,-6.9790654E-2,-3.452299E-1,4.2633634E0,-3.6873192E-1,7.060139E-1,-1.6791113E-2,6.507656E-2,6.893116E-2,6.1506152E-2,2.6321078E-2,-1.4104909E-2,-2.9234473E-2,4.0096574E-2,6.592727E-2,7.7763624E-2,-2.2105528E-2,8.145634E-2],"split_indices":[11,0,16,3,0,7,12,18,8,12,8,2,4,0,0,8,13,2,2,0,0,0,0,0,0,0,0,0,0,0,0],"split_type":[0,0,0,0,0,0,0,0,0,0,0,0,0,0,0,0,0,0,0,0,0,0,0,0,0,0,0,0,0,0,0],"sum_hessian":[1.2752214E4,3.345425E2,1.2417672E4,1.2159917E4,2.5775433E2,9.641554E2,1.1195762E4,8.039236E2,1.6023184E2,9.725609E3,1.4701522E3,4.8065277E2,3.232708E2,5.1224304E1,1.0900754E2,5.288018E3,4.437592E3,5.0901456E2,9.611377E2,2.6949994E2,2.1115283E2,1.3313419E2,1.9013661E2,2.0544153E3,3.2336025E3,3.9415142E3,4.960774E2,1.5429399E2,3.5472055E2,8.476435E2,1.1349421E2],"tree_param":{"num_deleted":"0","num_feature":"20","num_nodes":"31","size_leaf_vector":"1"}},{"base_weights":[2.6119577E-3,5.6191962E-2,-2.6543748E-2,6.786088E-2,-3.4101304E-1,2.9161862E-1,-1.972459E-1,-6.871919E-1,3.3302593E-1,-3.0432162E-1,4.428801E-1,-2.9806778E-1,1.3102056E0,1.6965439E0,-7.510591E-1,7.064542E-1,-1.4554019E0,-7.622911E-2,-5.317242E-3,1.3067704E-1,7.7761257E-1,6.397944E-1,-5.056735E-1,6.9714986E-2,-5.7054855E-2,-8.0662124E-2,2.3424993E0,-8.2908565E-1,1.1247047E0,1.0124849E0,-8.618261E-2,7.56019E-2,-1.5777279E0,6.1512668E-2,-2.381471E-2,5.3460326E-2,-7.146912E-4,2.4190959E-2,5.9425708E-2,5.0086487E-2,-3.7557308E-2,-3.043066E-2,5.8836043E-2,4.45184E-2,1.190259E-1,3.391521E-2,-4.640847E-2,-1.6868794E-3,6.6910654E-2,-5.0536174E-2,7.136005E-2,-6.996899E-2,-8.7142356E-2],"categories":[],"categories_nodes":[],"categories_segments":[],"categories_sizes":[],"default_left":[0,0,0,0,0,0,0,0,0,0,0,0,0,0,0,0,0,0,0,0,0,0,0,0,0,0,0,0,0,0,0,0,0,0,0,0,0,0,0,0,0,0,0,0,0,0,0,0,0,0,0,0,0],"id":28,"left_children":[1,-1,3,5,7,9,11,13,15,17,19,21,23,25,27,29,31,-1,33,35,37,39,41,-1,-1,-1,43,45,47,49,-1,-1,51,-1,-1,-1,-1,-1,-1,-1,-1,-1,-1,-1,-1,-1,-1,-1,-1,-1,-1,-1,-1],"loss_changes":[4.1443896E2,0E0,3.668568E2,5.6385547E2,6.6598065E2,4.6478055E2,6.616501E2,2.8830615E2,6.480443E2,3.809333E2,4.2956714E2,7.9450977E2,5.785434E1,1.0961513E2,2.6977356E2,5.982804E2,6.3250214E1,0E0,4.8916376E2,2.896226E2,2.3892773E2,3.7314343E2,5.791894E2,0E0,0E0,0E0,1.8965149E-1,2.641079E2,1.829393E1,5.997282E2,0E0,0E0,2.3177795E0,0E0,0E0,0E0,0E0,0E0,0E0,0E0,0E0,0E0,0E0,0E0,0E0,0E0,0E0,0E0,0E0,0E0,0E0,0E0,0E0],"parents":[2147483647,0,0,2,2,3,3,4,4,5,5,6,6,7,7,8,8,9,9,10,10,11,11,12,12,13,13,14,14,15,15,16,16,18,18,19,19,20,20,21,21,22,22,26,26,27,27,28,28,29,29,32,32],"right_children":[2,-1,4,6,8,10,12,14,16,18,20,22,24,26,28,30,32,-1,34,36,38,40,42,-1,-1,-1,44,46,48,50,-1,-1,52,-1,-1,-1,-1,-1,-1,-1,-1,-1,-1,-1,-1,-1,-1,-1,-1,-1,-1,-1,-1],"split_conditions":[-1.3660259E0,5.6191962E-2,5.315422E-1,9.1376805E-1,1.4338102E0,-7.378967E-1,1.2257711E0,-6.968527E-1,1.8616558E0,-9.790375E-1,-4.758726E-2,-8.4329504E-1,1.8743125E0,-4.3749866E-1,1.1087422E0,1.1421797E0,-8.466559E-1,-7.622911E-2,-4.3749866E-1,-1.2820685E0,-2.8341407E-2,1.3106669E0,3.4081962E0,6.9714986E-2,-5.7054855E-2,-8.0662124E-2,3.8364592E-1,-1.3858485E0,-1.5850996E0,3.1281704E-1,-8.618261E-2,7.56019E-2,2.8535116E0,6.1512668E-2,-2.381471E-2,5.3460326E-2,-7.146912E-4,2.4190959E-2,5.9425708E-2,5.0086487E-2,-3.7557308E-2,-3.043066E-2,5.8836043E-2,4.45184E-2,1.190259E-1,3.391521E-2,-4.640847E-2,-1.6868794E-3,6.6910654E-2,-5.0536174E-2,7.136005E-2,-6.996899E-2,-8.7142356E-2],"split_indices":[11,0,2,3,2,9,10,11,1,4,5,2,18,7,12,4,7,0,7,4,7,11,16,0,0,0,8,12,4,0,0,0,2,0,0,0,0,0,0,0,0,0,0,0,0,0,0,0,0,0,0,0,0],"split_type":[0,0,0,0,0,0,0,0,0,0,0,0,0,0,0,0,0,0,0,0,0,0,0,0,0,0,0,0,0,0,0,0,0,0,0,0,0,0,0,0,0,0,0,0,0,0,0,0,0,0,0,0,0],"sum_hessian":[1.2675872E4,3.2031012E2,1.23555625E4,9.503397E3,2.8521643E3,5.153552E3,4.349846E3,1.8843591E3,9.678053E2,1.0430662E3,4.110486E3,4.0779082E3,2.719378E2,4.8502995E1,1.8358561E3,8.011319E2,1.6667339E2,2.0447769E2,8.385885E2,2.1275356E3,1.98295E3,7.3870685E2,3.3392014E3,2.6333508E2,8.602736E0,7.6758E0,4.0827194E1,1.7630751E3,7.2781E1,7.120452E2,8.908668E1,6.148938E0,1.6052444E2,2.3099069E2,6.0759784E2,2.8380838E2,1.8437273E3,1.1575106E3,8.2543933E2,5.864001E2,1.5230678E2,3.1472695E3,1.9193187E2,1.6646509E0,3.9162544E1,1.0838203E2,1.6546931E3,1.14574995E1,6.1323498E1,1.2088177E2,5.9116345E2,8.172584E1,7.879861E1],"tree_param":{"num_deleted":"0","num_feature":"20","num_nodes":"53","size_leaf_vector":"1"}},{"base_weights":[2.5898304E-3,5.5837896E-2,-2.53188E-2,-4.8990514E-2,5.798011E-2,3.0170292E-1,-1.2805255E-1,7.6645243E-1,3.148258E-5,-2.2652501E-1,1.9535522E-1,5.1440415E-3,9.745798E-1,1.06172316E-1,-7.587767E-2,-3.384853E-1,7.5006384E-1,9.558744E-1,-4.234638E-1,-7.256474E-2,5.3334918E-2,-2.6289547E-2,5.246225E-2,-2.1123229E-2,2.6639754E-2,-8.760654E-3,-5.8077276E-2,4.8714925E-2,-6.962709E-2,7.16592E-2,8.9920434E-4,1.08025E-2,-5.5652E-2],"categories":[],"categories_nodes":[],"categories_segments":[],"categories_sizes":[],"default_left":[0,0,0,0,0,0,0,0,0,0,0,0,0,0,0,0,0,0,0,0,0,0,0,0,0,0,0,0,0,0,0,0,0],"id":29,"left_children":[1,-1,3,5,-1,7,9,11,13,15,17,19,21,23,-1,25,27,29,31,-1,-1,-1,-1,-1,-1,-1,-1,-1,-1,-1,-1,-1,-1],"loss_changes":[3.9138196E2,0E0,3.4447757E2,3.3385678E2,0E0,3.1057922E2,3.129523E2,1.3815295E2,2.1669684E2,8.238518E2,1.0799792E3,2.925238E2,7.725983E1,2.8379413E2,0E0,9.08017E2,3.7372675E2,4.6081757E2,5.583099E2,0E0,0E0,0E0,0E0,0E0,0E0,0E0,0E0,0E0,0E0,0E0,0E0,0E0,0E0],"parents":[2147483647,0,0,2,2,3,3,5,5,6,6,7,7,8,8,9,9,10,10,11,11,12,12,13,13,15,15,16,16,17,17,18,18],"right_children":[2,-1,4,6,-1,8,10,12,14,16,18,20,22,24,-1,26,28,30,32,-1,-1,-1,-1,-1,-1,-1,-1,-1,-1,-1,-1,-1,-1],"split_conditions":[-1.3660259E0,5.5837896E-2,3.4081962E0,-6.7799765E-1,5.798011E-2,-6.660857E-1,2.1801102E0,-1.0522511E0,2.1801102E0,1.9798402E0,-4.3749866E-1,-6.7600644E-1,-1.5850996E0,1.1125218E0,-7.587767E-2,6.4149374E-1,1.4746865E0,4.8509458E-1,8.338753E-1,-7.256474E-2,5.3334918E-2,-2.6289547E-2,5.246225E-2,-2.1123229E-2,2.6639754E-2,-8.760654E-3,-5.8077276E-2,4.8714925E-2,-6.962709E-2,7.16592E-2,8.9920434E-4,1.08025E-2,-5.5652E-2],"split_indices":[11,0,16,0,0,1,6,9,6,11,7,4,4,8,0,11,2,12,9,0,0,0,0,0,0,0,0,0,0,0,0,0,0],"split_type":[0,0,0,0,0,0,0,0,0,0,0,0,0,0,0,0,0,0,0,0,0,0,0,0,0,0,0,0,0,0,0,0,0],"sum_hessian":[1.2584782E4,3.0657764E2,1.2278205E4,1.2038661E4,2.3954327E2,2.2142324E3,9.824429E3,8.7093896E2,1.3432935E3,7.5315063E3,2.2929229E3,1.8720116E2,6.837378E2,1.2563534E3,8.69401E1,6.7574565E3,7.7405E2,1.0284404E3,1.2644823E3,7.876687E1,1.0843428E2,3.2126446E1,6.516113E2,5.610968E2,6.952566E2,5.639875E3,1.1175812E3,7.012101E2,7.283996E1,6.812247E2,3.472158E2,6.5641187E2,6.080705E2],"tree_param":{"num_deleted":"0","num_feature":"20","num_nodes":"33","size_leaf_vector":"1"}},{"base_weights":[2.551305E-3,5.550439E-2,-2.4156796E-2,5.500321E-1,-7.3414974E-2,7.6081866E-1,-5.546152E-1,-1.4317678E-1,3.8953987E-1,3.8296655E-1,1.2603903E0,6.0228806E-2,-6.8612866E-2,1.572227E-1,-3.0009657E-1,1.4384937E0,-1.7155668E-1,9.943639E-1,-9.422949E-1,-3.496143E-2,1.2695359E0,-3.216468E-2,9.2680097E-1,-4.6736193E-1,1.46775E-1,6.406007E-2,7.556806E-2,-3.938117E-1,1.5582498E0,6.003597E-2,-5.0746143E-2,6.410215E-2,-7.6046295E-2,4.31243E-2,6.4519145E-2,-9.457379E-3,6.406047E-2,5.5095382E-2,-7.85835E-2,-8.951192E-3,-4.036112E-2,-4.9782045E-2,1.8672049E-2,2.0066036E-2,-6.925948E-2,8.3157085E-2,5.6801956E-2],"categories":[],"categories_nodes":[],"categories_segments":[],"categories_sizes":[],"default_left":[0,0,0,0,0,0,0,0,0,0,0,0,0,0,0,0,0,0,0,0,0,0,0,0,0,0,0,0,0,0,0,0,0,0,0,0,0,0,0,0,0,0,0,0,0,0,0],"id":30,"left_children":[1,-1,3,5,7,9,11,13,15,17,19,-1,-1,21,23,25,27,29,31,-1,33,35,37,39,41,-1,-1,43,45,-1,-1,-1,-1,-1,-1,-1,-1,-1,-1,-1,-1,-1,-1,-1,-1,-1,-1],"loss_changes":[3.6975436E2,0E0,3.4526364E2,2.24999E2,3.6314438E2,1.524848E2,2.2478983E2,4.606303E2,8.6691113E2,3.75947E2,7.134094E0,0E0,0E0,4.8877014E2,4.798272E2,3.9464111E0,3.697844E2,1.3273834E2,1.9066824E2,0E0,1.8339844E0,5.552779E2,2.914803E2,4.5755072E2,4.5324268E2,0E0,0E0,6.719353E2,2.9613342E0,0E0,0E0,0E0,0E0,0E0,0E0,0E0,0E0,0E0,0E0,0E0,0E0,0E0,0E0,0E0,0E0,0E0,0E0],"parents":[2147483647,0,0,2,2,3,3,4,4,5,5,6,6,7,7,8,8,9,9,10,10,13,13,14,14,15,15,16,16,17,17,18,18,20,20,21,21,22,22,23,23,24,24,27,27,28,28],"right_children":[2,-1,4,6,8,10,12,14,16,18,20,-1,-1,22,24,26,28,30,32,-1,34,36,38,40,42,-1,-1,44,46,-1,-1,-1,-1,-1,-1,-1,-1,-1,-1,-1,-1,-1,-1,-1,-1,-1,-1],"split_conditions":[-1.3660259E0,5.550439E-2,-1.4220867E0,7.899731E-1,1.1087422E0,-7.9743385E-1,-3.452299E-1,-6.99444E-2,3.8364592E-1,7.9691845E-1,-1.3858485E0,6.0228806E-2,-6.8612866E-2,-6.7600644E-1,